{"learner":{"attributes":{"best_iteration":"99","best_ntree_limit":"100","scikit_learn":"{\"use_label_encoder\": false, \"n_estimators\": 100, \"objective\": \"multi:softprob\", \"max_depth\": 5, \"max_leaves\": null, \"max_bin\": null, \"grow_policy\": null, \"learning_rate\": 0.1, \"verbosity\": null, \"booster\": \"gbtree\", \"tree_method\": null, \"gamma\": null, \"min_child_weight\": 15, \"max_delta_step\": null, \"subsample\": 0.7, \"sampling_method\": null, \"colsample_bytree\": null, \"colsample_bylevel\": null, \"colsample_bynode\": null, \"reg_alpha\": 1, \"reg_lambda\": 1, \"scale_pos_weight\": null, \"base_score\": null, \"missing\": NaN, \"num_parallel_tree\": null, \"random_state\": 111, \"n_jobs\": null, \"monotone_constraints\": null, \"interaction_constraints\": null, \"importance_type\": null, \"gpu_id\": null, \"validate_parameters\": null, \"predictor\": null, \"enable_categorical\": false, \"feature_types\": null, \"max_cat_to_onehot\": null, \"max_cat_threshold\": null, \"eval_metric\": \"mlogloss\", \"early_stopping_rounds\": null, \"callbacks\": null, \"classes_\": [0, 1, 2], \"n_classes_\": 3, \"_estimator_type\": \"classifier\"}"},"feature_names":["Tank_NO","move_min","move_max","move_mean","move_std","grow_day","Temperatue","DO","pH","salinity","Plakton_1","Plakton_2","Plakton_3","Plakton_4"],"feature_types":["int","float","float","float","float","int","float","float","float","float","float","float","float","float"],"gradient_booster":{"model":{"gbtree_model_param":{"num_parallel_tree":"1","num_trees":"300","size_leaf_vector":"0"},"tree_info":[0,1,2,0,1,2,0,1,2,0,1,2,0,1,2,0,1,2,0,1,2,0,1,2,0,1,2,0,1,2,0,1,2,0,1,2,0,1,2,0,1,2,0,1,2,0,1,2,0,1,2,0,1,2,0,1,2,0,1,2,0,1,2,0,1,2,0,1,2,0,1,2,0,1,2,0,1,2,0,1,2,0,1,2,0,1,2,0,1,2,0,1,2,0,1,2,0,1,2,0,1,2,0,1,2,0,1,2,0,1,2,0,1,2,0,1,2,0,1,2,0,1,2,0,1,2,0,1,2,0,1,2,0,1,2,0,1,2,0,1,2,0,1,2,0,1,2,0,1,2,0,1,2,0,1,2,0,1,2,0,1,2,0,1,2,0,1,2,0,1,2,0,1,2,0,1,2,0,1,2,0,1,2,0,1,2,0,1,2,0,1,2,0,1,2,0,1,2,0,1,2,0,1,2,0,1,2,0,1,2,0,1,2,0,1,2,0,1,2,0,1,2,0,1,2,0,1,2,0,1,2,0,1,2,0,1,2,0,1,2,0,1,2,0,1,2,0,1,2,0,1,2,0,1,2,0,1,2,0,1,2,0,1,2,0,1,2,0,1,2,0,1,2,0,1,2,0,1,2,0,1,2,0,1,2,0,1,2,0,1,2,0,1,2,0,1,2,0,1,2],"trees":[{"base_weights":[7.267727E-1,-7.4992484E-1,1.1483505E0,9.0693E-1,1.3540965E0,7.022328E-1,1.037898E0,1.4617095E0,1.2601655E0,8.2949877E-1,2.7294433E-1,1.1579516E0,9.0438527E-1,1.3275377E0,1.4821296E0,1.4353744E0,1.1589562E0,2.5761288E-1,8.711875E-1,3.879115E-1,-3.0741414E-1,9.9653053E-1,1.2381889E0,7.449126E-1,1.0340725E0,1.0114961E0,1.430867E0,1.4883964E0,1.3360595E0,1.4558475E0,1.1535856E0,1.2531552E0,1.01186E0],"categories":[],"categories_nodes":[],"categories_segments":[],"categories_sizes":[],"default_left":[1,0,1,1,1,1,1,1,1,1,1,1,1,1,1,1,1,0,0,0,0,0,0,0,0,0,0,0,0,0,0,0,0],"id":0,"left_children":[1,-1,3,5,7,9,11,13,15,17,19,21,23,25,27,29,31,-1,-1,-1,-1,-1,-1,-1,-1,-1,-1,-1,-1,-1,-1,-1,-1],"loss_changes":[6.520453E4,0E0,4.0435938E3,1.0026953E3,4.4004688E2,7.982495E2,3.6330078E2,5.1351562E1,4.1241406E2,2.6772705E2,2.2371156E2,1.5233105E2,2.214668E2,8.501172E1,1.1449219E1,4.530078E1,2.0296484E2,0E0,0E0,0E0,0E0,0E0,0E0,0E0,0E0,0E0,0E0,0E0,0E0,0E0,0E0,0E0,0E0],"parents":[2147483647,0,0,2,2,3,3,4,4,5,5,6,6,7,7,8,8,9,9,10,10,11,11,12,12,13,13,14,14,15,15,16,16],"right_children":[2,-1,4,6,8,10,12,14,16,18,20,22,24,26,28,30,32,-1,-1,-1,-1,-1,-1,-1,-1,-1,-1,-1,-1,-1,-1,-1,-1],"split_conditions":[1.5E0,-7.4992485E-2,4.5E0,2.5E0,2.6150002E1,4.573723E1,2.575E1,9.372197E1,7.05E0,7.185E0,8.4444995E2,4.5930233E0,4.5302612E1,1.5E0,8.455E0,1.3660885E1,1.0028325E1,2.576129E-2,8.711875E-2,3.879115E-2,-3.0741414E-2,9.965306E-2,1.2381889E-1,7.449126E-2,1.0340726E-1,1.0114961E-1,1.430867E-1,1.4883964E-1,1.3360594E-1,1.4558475E-1,1.15358554E-1,1.2531553E-1,1.01186E-1],"split_indices":[5,0,5,5,6,4,6,3,7,7,2,11,4,0,8,12,11,0,0,0,0,0,0,0,0,0,0,0,0,0,0,0,0],"split_type":[0,0,0,0,0,0,0,0,0,0,0,0,0,0,0,0,0,0,0,0,0,0,0,0,0,0,0,0,0,0,0,0,0],"sum_hessian":[1.0473599E5,2.3259555E4,8.147644E4,3.7492887E4,4.3983555E4,1.4634222E4,2.2858666E4,2.048711E4,2.3496443E4,1.1285333E4,3.3488887E3,1.2027999E4,1.0830666E4,2.7213333E3,1.7765777E4,8.594666E3,1.4901777E4,7.6888885E2,1.0516443E4,2.7968887E3,5.5199994E2,4.002222E3,8.0257773E3,4.8639995E3,5.9666665E3,6.7555554E2,2.0457777E3,1.7019555E4,7.4622217E2,8.005333E3,5.893333E2,9.075555E3,5.8262217E3],"tree_param":{"num_deleted":"0","num_feature":"14","num_nodes":"33","size_leaf_vector":"0"}},{"base_weights":[-5.601041E-2,1.1554561E0,-4.015688E-1,1.0472558E0,1.4161646E0,-1.657181E-1,-6.0334927E-1,1.2198336E0,8.238653E-1,5.042204E-2,-3.0366975E-1,-7.129395E-1,-5.06918E-1,4.1703013E-1,1.2738152E0,1.15405E0,5.827633E-1,-7.1745396E-2,4.6586463E-1,-4.5680478E-1,-2.2753432E-1,-5.850252E-1,-7.323817E-1,-6.8441576E-1,-4.0366778E-1,4.511105E-1,3.0989006E-1,1.3199413E0,5.0751626E-1,7.156267E-1,1.2626787E0,1.0117153E0,3.690844E-1,4.3015486E-1,-1.0914282E-1,3.5252428E-1,1.034295E0,-5.409697E-1,-1.6959295E-1,-1.505106E-1,-3.0209693E-1,-2.992507E-1,-6.770896E-1,-7.393894E-1,-5.759794E-1,-7.062056E-1,-3.7667385E-1,-5.006793E-1,-2.5561616E-1],"categories":[],"categories_nodes":[],"categories_segments":[],"categories_sizes":[],"default_left":[1,1,1,1,0,1,1,1,1,1,1,1,1,1,1,1,1,1,1,1,1,1,1,1,1,0,0,0,0,0,0,0,0,0,0,0,0,0,0,0,0,0,0,0,0,0,0,0,0],"id":1,"left_children":[1,3,5,7,-1,9,11,13,15,17,19,21,23,25,27,29,31,33,35,37,39,41,43,45,47,-1,-1,-1,-1,-1,-1,-1,-1,-1,-1,-1,-1,-1,-1,-1,-1,-1,-1,-1,-1,-1,-1,-1,-1],"loss_changes":[4.3800984E4,6.510781E2,3.8734326E3,6.2984766E2,0E0,1.1195844E3,4.6204492E2,3.9894434E2,5.676299E2,7.426081E2,2.664065E2,4.930371E1,4.2647266E2,1.2385101E0,3.0403027E2,1.4090967E2,3.779237E2,2.1180977E2,2.1246521E2,1.8303455E2,8.7448425E1,7.038629E1,1.7776367E1,5.618921E1,2.1118726E2,0E0,0E0,0E0,0E0,0E0,0E0,0E0,0E0,0E0,0E0,0E0,0E0,0E0,0E0,0E0,0E0,0E0,0E0,0E0,0E0,0E0,0E0,0E0,0E0],"parents":[2147483647,0,0,1,1,2,2,3,3,5,5,6,6,7,7,8,8,9,9,10,10,11,11,12,12,13,13,14,14,15,15,16,16,17,17,18,18,19,19,20,20,21,21,22,22,23,23,24,24],"right_children":[2,4,6,8,-1,10,12,14,16,18,20,22,24,26,28,30,32,34,36,38,40,42,44,46,48,-1,-1,-1,-1,-1,-1,-1,-1,-1,-1,-1,-1,-1,-1,-1,-1,-1,-1,-1,-1,-1,-1,-1,-1],"split_conditions":[1.5E0,8.365E0,4.5E0,3.997E2,1.4161646E-1,2.5E0,2.6150002E1,2.961E2,7.12E0,4.573723E1,2.525E1,9.372197E1,7.05E0,2.5150002E1,3.3565E1,3.2449997E1,2.495E1,7.185E0,8.4444995E2,1.3423909E2,4.5302612E1,1.5E0,8.455E0,1.3660885E1,1.0028325E1,4.5111053E-2,3.0989006E-2,1.3199413E-1,5.0751626E-2,7.156267E-2,1.2626788E-1,1.0117153E-1,3.690844E-2,4.3015487E-2,-1.0914282E-2,3.525243E-2,1.034295E-1,-5.4096974E-2,-1.6959295E-2,-1.5051059E-2,-3.0209694E-2,-2.9925069E-2,-6.770896E-2,-7.393894E-2,-5.7597943E-2,-7.062056E-2,-3.7667386E-2,-5.006793E-2,-2.5561616E-2],"split_indices":[5,8,5,2,0,5,6,2,7,4,6,3,7,6,9,9,6,7,2,3,4,0,8,12,11,0,0,0,0,0,0,0,0,0,0,0,0,0,0,0,0,0,0,0,0,0,0,0,0],"split_type":[0,0,0,0,0,0,0,0,0,0,0,0,0,0,0,0,0,0,0,0,0,0,0,0,0,0,0,0,0,0,0,0,0,0,0,0,0,0,0,0,0,0,0,0,0,0,0,0,0],"sum_hessian":[1.0462844E5,2.3219555E4,8.140888E4,1.6415555E4,6.8039995E3,3.7538664E4,4.387022E4,9.255999E3,7.159555E3,1.4622222E4,2.2916443E4,2.052622E4,2.3343998E4,5.8488885E2,8.67111E3,3.018222E3,4.141333E3,1.1298222E4,3.3239998E3,7.6039995E3,1.5312443E4,2.7191108E3,1.780711E4,8.579555E3,1.4764443E4,4.342222E2,1.5066666E2,8.176888E3,4.942222E2,6.026666E2,2.4155554E3,1.3742222E3,2.7671108E3,7.8088885E2,1.0517333E4,2.7742222E3,5.497778E2,5.877333E3,1.7266665E3,7.5399995E3,7.772444E3,6.6622217E2,2.0528887E3,1.7033777E4,7.733333E2,8.0079995E3,5.7155554E2,8.914222E3,5.8502217E3],"tree_param":{"num_deleted":"0","num_feature":"14","num_nodes":"49","size_leaf_vector":"0"}},{"base_weights":[-6.693379E-1,-4.035402E-1,-7.448556E-1,-2.9578644E-1,-6.635848E-1,-7.476567E-1,-7.255886E-1,-4.7242534E-1,-6.848068E-2,-6.119819E-1,-6.7663604E-1,-7.4912596E-1,-5.915942E-1,3.287216E-1,-5.28441E-1,-4.101052E-1,1.813403E-1,3.0242822E-1,3.9911306E-1,-5.736061E-1,2.092555E-1,-0E0,-5.11864E-1,-2.5710857E-1,4.022488E-1],"categories":[],"categories_nodes":[],"categories_segments":[],"categories_sizes":[],"default_left":[1,1,1,1,1,0,1,1,1,0,0,0,0,1,1,1,1,0,0,0,0,0,0,0,0],"id":2,"left_children":[1,3,5,7,9,-1,11,13,15,-1,-1,-1,-1,17,19,21,23,-1,-1,-1,-1,-1,-1,-1,-1],"loss_changes":[2.1017344E3,6.4859326E2,2.3828125E0,6.578727E2,2.8701172E0,0E0,3.1128418E1,4.143816E2,6.1263434E2,0E0,0E0,0E0,0E0,2.9257202E-1,2.8782324E2,1.2672458E2,4.0154895E2,0E0,0E0,0E0,0E0,0E0,0E0,0E0,0E0],"parents":[2147483647,0,0,1,1,2,2,3,3,4,4,6,6,7,7,8,8,13,13,14,14,15,15,16,16],"right_children":[2,4,6,8,10,-1,12,14,16,-1,-1,-1,-1,18,20,22,24,-1,-1,-1,-1,-1,-1,-1,-1],"split_conditions":[1.5E0,8.365E0,8.425E0,3.997E2,8E0,-7.4765675E-2,2.745E1,2.961E2,7.12E0,-6.1198194E-2,-6.76636E-2,-7.49126E-2,-5.9159424E-2,2.5150002E1,3.3565E1,3.2449997E1,2.495E1,3.0242821E-2,3.9911307E-2,-5.7360608E-2,2.092555E-2,-0E0,-5.11864E-2,-2.5710857E-2,4.022488E-2],"split_indices":[5,8,8,2,0,0,6,2,7,0,0,0,0,6,9,9,6,0,0,0,0,0,0,0,0],"split_type":[0,0,0,0,0,0,0,0,0,0,0,0,0,0,0,0,0,0,0,0,0,0,0,0,0],"sum_hessian":[1.04778664E5,2.318711E4,8.159155E4,1.639822E4,6.7888887E3,7.115688E4,1.0434666E4,9.224444E3,7.1737773E3,1.3955554E3,5.393333E3,8.865333E3,1.5693333E3,6.013333E2,8.62311E3,3.0315554E3,4.142222E3,4.5199997E2,1.4933333E2,8.127111E3,4.9599997E2,6.0222217E2,2.4293333E3,1.3862222E3,2.7559998E3],"tree_param":{"num_deleted":"0","num_feature":"14","num_nodes":"25","size_leaf_vector":"0"}},{"base_weights":[6.509232E-1,-7.224923E-1,1.0065148E0,7.351222E-1,1.13913E0,7.556371E-1,-2.9848877E-1,9.762358E-1,1.177708E0,7.7645904E-1,2.2360508E-1,-3.5493433E-1,-1.3600278E-1,9.527407E-1,1.3047011E0,1.2672093E0,1.0988864E0,8.262501E-1,6.12538E-1,5.8219664E-2,2.4449894E-1,-4.305522E-1,-3.155532E-1,1.0885214E0,9.2659926E-1,1.1610057E0,1.2832552E0,1.2192806E0,9.905226E-1],"categories":[],"categories_nodes":[],"categories_segments":[],"categories_sizes":[],"default_left":[1,0,1,1,1,1,1,1,1,1,1,1,0,1,0,1,1,0,0,0,0,0,0,0,0,0,0,0,0],"id":3,"left_children":[1,-1,3,5,7,9,11,13,15,17,19,21,-1,23,-1,25,27,-1,-1,-1,-1,-1,-1,-1,-1,-1,-1,-1,-1],"loss_changes":[5.2724395E4,0E0,3.0836875E3,5.9768066E2,3.5867188E2,3.0466113E2,4.4840317E0,8.170215E1,3.2472266E2,2.1487793E2,3.287136E0,3.130684E-1,0E0,3.357129E1,0E0,3.3203125E1,3.1976562E2,0E0,0E0,0E0,0E0,0E0,0E0,0E0,0E0,0E0,0E0,0E0,0E0],"parents":[2147483647,0,0,2,2,3,3,4,4,5,5,6,6,7,7,8,8,9,9,10,10,11,11,13,13,15,15,16,16],"right_children":[2,-1,4,6,8,10,12,14,16,18,20,22,-1,24,-1,26,28,-1,-1,-1,-1,-1,-1,-1,-1,-1,-1,-1,-1],"split_conditions":[1.5E0,-7.2249226E-2,3.5E0,9.348E2,4.5E0,5.8551125E1,7.6800003E0,5.1465E2,2.6150002E1,2.6E1,7.065E0,2.525E1,-1.3600278E-2,8.065001E0,1.3047011E-1,9.372197E1,7.175E0,8.262501E-2,6.1253797E-2,5.8219666E-3,2.4449894E-2,-4.305522E-2,-3.155532E-2,1.0885214E-1,9.265993E-2,1.1610057E-1,1.2832552E-1,1.2192806E-1,9.9052265E-2],"split_indices":[5,0,5,2,5,4,7,2,6,6,7,6,0,8,0,3,7,0,0,0,0,0,0,0,0,0,0,0,0],"split_type":[0,0,0,0,0,0,0,0,0,0,0,0,0,0,0,0,0,0,0,0,0,0,0,0,0,0,0,0,0],"sum_hessian":[1.0795578E5,2.2201645E4,8.575413E4,2.8153365E4,5.760077E4,2.760667E4,5.46695E2,1.1039422E4,4.6561348E4,2.656468E4,1.0419901E3,4.0029788E2,1.4639716E2,1.0308968E4,7.304543E2,2.1790592E4,2.4770756E4,2.0367814E4,6.1968657E3,1.22666954E2,9.1932324E2,1.2498383E2,2.7531403E2,1.6515928E3,8.657375E3,2.8779458E3,1.8912646E4,1.1724792E4,1.3045963E4],"tree_param":{"num_deleted":"0","num_feature":"14","num_nodes":"29","size_leaf_vector":"0"}},{"base_weights":[-5.3861305E-2,1.0116569E0,-3.787605E-1,9.230953E-1,1.2248673E0,-1.5277115E-1,-5.7646465E-1,1.0648035E0,7.3710126E-1,1.1741303E0,1.2375625E0,4.65117E-2,-2.8242534E-1,-6.822281E-1,-4.846317E-1,7.9984564E-1,1.1856848E0,1.0138838E0,5.310635E-1,-6.6350296E-2,4.225016E-1,-4.347176E-1,-2.0796174E-1,-5.524204E-1,-7.0235777E-1,-6.562459E-1,-3.8594124E-1,6.2737143E-1,1.0954129E0,1.1094571E0,1.2161875E0,6.168376E-1,1.1074544E0,9.039139E-1,3.3518484E-1,3.9265338E-1,-1.0183948E-1,3.1762588E-1,9.416579E-1,-3.0571884E-1,-5.9423727E-1,-1.4393693E-1,-2.8711256E-1,-2.6106983E-1,-6.491402E-1,-7.0972973E-1,-5.397045E-1,-6.782913E-1,-3.6512932E-1,-5.337728E-1,-2.8828004E-1],"categories":[],"categories_nodes":[],"categories_segments":[],"categories_sizes":[],"default_left":[1,1,1,1,1,1,1,1,1,0,0,1,1,1,1,1,1,1,1,1,1,1,1,1,1,1,1,0,0,0,0,0,0,0,0,0,0,0,0,0,0,0,0,0,0,0,0,0,0,0,0],"id":4,"left_children":[1,3,5,7,9,11,13,15,17,-1,-1,19,21,23,25,27,29,31,33,35,37,39,41,43,45,47,49,-1,-1,-1,-1,-1,-1,-1,-1,-1,-1,-1,-1,-1,-1,-1,-1,-1,-1,-1,-1,-1,-1,-1,-1],"loss_changes":[3.610215E4,4.568457E2,3.5698867E3,4.5138867E2,7.373047E-1,9.6388696E2,4.1249512E2,3.1000293E2,4.23031E2,0E0,0E0,6.2410565E2,2.5553699E2,5.009961E1,3.852539E2,1.5392566E2,1.1915039E1,1.1565967E2,3.1086365E2,1.8388257E2,1.8332135E2,1.5151648E2,7.647247E1,7.415576E1,1.8911133E1,5.2155273E1,2.083147E2,0E0,0E0,0E0,0E0,0E0,0E0,0E0,0E0,0E0,0E0,0E0,0E0,0E0,0E0,0E0,0E0,0E0,0E0,0E0,0E0,0E0,0E0,0E0,0E0],"parents":[2147483647,0,0,1,1,2,2,3,3,4,4,5,5,6,6,7,7,8,8,11,11,12,12,13,13,14,14,15,15,16,16,17,17,18,18,19,19,20,20,21,21,22,22,23,23,24,24,25,25,26,26],"right_children":[2,4,6,8,10,12,14,16,18,-1,-1,20,22,24,26,28,30,32,34,36,38,40,42,44,46,48,50,-1,-1,-1,-1,-1,-1,-1,-1,-1,-1,-1,-1,-1,-1,-1,-1,-1,-1,-1,-1,-1,-1,-1,-1],"split_conditions":[1.5E0,8.365E0,4.5E0,3.997E2,8E0,2.5E0,2.6150002E1,4.13E1,7.12E0,1.1741304E-1,1.2375625E-1,4.573723E1,2.525E1,9.372197E1,7.05E0,2.675E1,7.1800003E0,3.2449997E1,2.495E1,7.185E0,8.4444995E2,1.5845751E1,3.5E0,1.5E0,8.455E0,1.3660885E1,4.545E1,6.2737145E-2,1.0954129E-1,1.1094572E-1,1.2161875E-1,6.1683763E-2,1.10745445E-1,9.039139E-2,3.3518486E-2,3.926534E-2,-1.0183948E-2,3.176259E-2,9.4165795E-2,-3.0571884E-2,-5.9423726E-2,-1.4393694E-2,-2.8711258E-2,-2.6106983E-2,-6.491402E-2,-7.097297E-2,-5.3970452E-2,-6.782913E-2,-3.6512934E-2,-5.3377282E-2,-2.8828004E-2],"split_indices":[5,8,5,2,0,5,6,1,7,0,0,4,6,3,7,6,7,9,6,7,2,11,5,0,8,12,1,0,0,0,0,0,0,0,0,0,0,0,0,0,0,0,0,0,0,0,0,0,0,0,0],"split_type":[0,0,0,0,0,0,0,0,0,0,0,0,0,0,0,0,0,0,0,0,0,0,0,0,0,0,0,0,0,0,0,0,0,0,0,0,0,0,0,0,0,0,0,0,0,0,0,0,0,0,0],"sum_hessian":[1.0428513E5,2.4367121E4,7.9918016E4,1.722314E4,7.1439805E3,3.7294586E4,4.2623426E4,9.76961E3,7.45353E3,1.4642592E3,5.6797217E3,1.4697289E4,2.2597297E4,1.9801197E4,2.282223E4,3.0657444E3,6.703866E3,3.1769604E3,4.27657E3,1.1302691E4,3.394598E3,7.414653E3,1.5182644E4,2.6688782E3,1.7132318E4,8.326821E3,1.4495409E4,1.9401198E3,1.1256246E3,1.9359614E3,4.767905E3,6.0939764E2,2.5675627E3,1.4699099E3,2.8066597E3,8.084367E2,1.0494254E4,2.8270403E3,5.675577E2,4.1045845E3,3.310068E3,8.401863E3,6.780781E3,6.686702E2,2.000208E3,1.6380397E4,7.519211E2,7.7362134E3,5.9060754E2,5.76067E3,8.734739E3],"tree_param":{"num_deleted":"0","num_feature":"14","num_nodes":"51","size_leaf_vector":"0"}},{"base_weights":[-6.423376E-1,-3.8306013E-1,-7.175218E-1,-2.804411E-1,-6.347644E-1,-7.202178E-1,-6.9899446E-1,-4.4489065E-1,-7.48331E-2,-5.7523555E-1,-6.4949644E-1,-7.2233075E-1,-5.691314E-1,-1.4695743E-1,-5.8563805E-1,-3.8184834E-1,1.4461735E-1,-4.7323543E-1,5.3956144E-2,-5.179534E-1,-6.270442E-1,1.4181049E-2,-4.8335645E-1,-2.5981063E-1,3.4442577E-1],"categories":[],"categories_nodes":[],"categories_segments":[],"categories_sizes":[],"default_left":[1,1,1,1,1,0,1,1,1,0,0,0,0,1,1,1,1,0,0,0,0,0,0,0,0],"id":5,"left_children":[1,3,5,7,9,-1,11,13,15,-1,-1,-1,-1,17,19,21,23,-1,-1,-1,-1,-1,-1,-1,-1],"loss_changes":[1.9635195E3,5.8429785E2,1.984375E0,5.4396936E2,4.154785E0,0E0,2.8622559E1,3.7426855E2,4.8272852E2,0E0,0E0,0E0,0E0,1.888134E2,1.554834E1,1.2055148E2,3.375127E2,0E0,0E0,0E0,0E0,0E0,0E0,0E0,0E0],"parents":[2147483647,0,0,1,1,2,2,3,3,4,4,6,6,7,7,8,8,13,13,14,14,15,15,16,16],"right_children":[2,4,6,8,10,-1,12,14,16,-1,-1,-1,-1,18,20,22,24,-1,-1,-1,-1,-1,-1,-1,-1],"split_conditions":[1.5E0,8.365E0,8.425E0,3.997E2,8E0,-7.202178E-2,2.745E1,4.13E1,7.12E0,-5.7523556E-2,-6.494965E-2,-7.223307E-2,-5.6913137E-2,3.94E1,7.215E0,3.2449997E1,2.495E1,-4.7323544E-2,5.3956145E-3,-5.179534E-2,-6.270442E-2,1.4181049E-3,-4.8335645E-2,-2.5981063E-2,3.4442578E-2],"split_indices":[5,8,8,2,0,0,6,1,7,0,0,0,0,1,7,9,6,0,0,0,0,0,0,0,0],"split_type":[0,0,0,0,0,0,0,0,0,0,0,0,0,0,0,0,0,0,0,0,0,0,0,0,0],"sum_hessian":[1.0079637E5,2.2662541E4,7.813383E4,1.6103346E4,6.559197E3,6.812818E4,1.00056455E4,8.943845E3,7.1595005E3,1.3226401E3,5.2365566E3,8.471128E3,1.5345175E3,2.8725012E3,6.0713433E3,2.9859368E3,4.173564E3,1.0960952E3,1.7764061E3,2.3187126E3,3.7526309E3,6.073595E2,2.3785771E3,1.3783566E3,2.7952073E3],"tree_param":{"num_deleted":"0","num_feature":"14","num_nodes":"25","size_leaf_vector":"0"}},{"base_weights":[5.894741E-1,-6.9880044E-1,8.974898E-1,6.5791667E-1,1.0136952E0,6.754322E-1,-2.690442E-1,8.658654E-1,1.0483176E0,5.822392E-1,7.800755E-1,-3.461673E-1,-1.8022828E-1,8.4453934E-1,1.1619947E0,1.126138E0,9.793715E-1,6.5014654E-1,2.9649705E-1,9.118549E-1,5.590309E-1,8.1813556E-1,9.71155E-1,1.0345188E0,1.1398488E0,1.0834999E0,8.8547164E-1],"categories":[],"categories_nodes":[],"categories_segments":[],"categories_sizes":[],"default_left":[1,0,1,1,1,1,1,1,1,1,1,0,0,1,0,1,1,0,0,0,0,0,0,0,0,0,0],"id":6,"left_children":[1,-1,3,5,7,9,11,13,15,17,19,-1,-1,21,-1,23,25,-1,-1,-1,-1,-1,-1,-1,-1,-1,-1],"loss_changes":[4.3476918E4,0E0,2.4593594E3,4.6960352E2,3.0190625E2,2.746797E2,3.0783882E0,6.843359E1,2.555625E2,2.900332E2,3.8683057E2,0E0,0E0,3.270703E1,0E0,2.5089844E1,2.4725586E2,0E0,0E0,0E0,0E0,0E0,0E0,0E0,0E0,0E0,0E0],"parents":[2147483647,0,0,2,2,3,3,4,4,5,5,6,6,7,7,8,8,9,9,10,10,13,13,15,15,16,16],"right_children":[2,-1,4,6,8,10,12,14,16,18,20,-1,-1,22,-1,24,26,-1,-1,-1,-1,-1,-1,-1,-1,-1,-1],"split_conditions":[1.5E0,-6.9880046E-2,3.5E0,9.348E2,4.5E0,2.5E0,7.665E0,5.1465E2,2.6150002E1,4.573723E1,2.665E1,-3.461673E-2,-1.8022828E-2,2.815E1,1.1619947E-1,9.372197E1,7.175E0,6.501465E-2,2.9649705E-2,9.1185495E-2,5.590309E-2,8.181356E-2,9.71155E-2,1.03451885E-1,1.1398488E-1,1.08349994E-1,8.854716E-2],"split_indices":[5,0,5,2,5,5,7,2,6,4,6,0,0,6,0,3,7,0,0,0,0,0,0,0,0,0,0],"split_type":[0,0,0,0,0,0,0,0,0,0,0,0,0,0,0,0,0,0,0,0,0,0,0,0,0,0,0],"sum_hessian":[1.09563336E5,2.1140162E4,8.842317E4,2.8886033E4,5.953714E4,2.8351662E4,5.3437286E2,1.1308247E4,4.8228895E4,1.500482E4,1.3346841E4,2.7843637E2,2.5593652E2,1.0555323E4,7.5292346E2,2.2642346E4,2.5586547E4,1.2119754E4,2.8850664E3,8.357017E3,4.9898237E3,8.746692E3,1.8086312E3,2.9668228E3,1.9675523E4,1.2122431E4,1.3464117E4],"tree_param":{"num_deleted":"0","num_feature":"14","num_nodes":"27","size_leaf_vector":"0"}},{"base_weights":[-4.7012553E-2,9.035913E-1,-3.545783E-1,8.251253E-1,1.0885946E0,-1.3926826E-1,-5.485422E-1,9.52195E-1,6.5708244E-1,5.0929714E-2,-2.6503128E-1,-6.592884E-1,-4.544712E-1,3.2516882E-1,9.9363756E-1,9.018729E-1,4.7293735E-1,-5.3241305E-2,3.8350075E-1,-3.583879E-1,-1.6194065E-1,-5.337047E-1,-6.7879236E-1,-5.968122E-1,-3.3108285E-1,3.4860575E-1,2.4842043E-1,1.0291746E0,3.872559E-1,5.7348454E-1,9.8201144E-1,2.6499215E-1,7.566022E-1,2.2611926E-1,-1.09136365E-1,2.9788184E-1,8.025218E-1,-1.9063288E-1,-4.427775E-1,-5.0624967E-2,-2.5232694E-1,-2.7731815E-1,-6.1961323E-1,-6.858173E-1,-5.228348E-1,-4.1917935E-1,-6.31741E-1,-4.5452362E-1,-1.5370929E-1],"categories":[],"categories_nodes":[],"categories_segments":[],"categories_sizes":[],"default_left":[1,1,1,1,0,1,1,1,1,1,1,1,1,1,1,1,1,1,1,1,1,1,1,1,1,0,0,0,0,0,0,0,0,0,0,0,0,0,0,0,0,0,0,0,0,0,0,0,0],"id":7,"left_children":[1,3,5,7,-1,9,11,13,15,17,19,21,23,25,27,29,31,33,35,37,39,41,43,45,47,-1,-1,-1,-1,-1,-1,-1,-1,-1,-1,-1,-1,-1,-1,-1,-1,-1,-1,-1,-1,-1,-1,-1,-1],"loss_changes":[3.0088697E4,3.623789E2,3.246541E3,3.751338E2,0E0,8.8178015E2,4.2471777E2,2.5970996E2,3.4151147E2,5.084766E2,2.1296777E2,4.442334E1,3.87458E2,4.433136E-1,2.0143555E2,8.383716E1,2.5542413E2,1.7428221E2,1.2425391E2,1.6403906E2,1.05846405E2,5.4790283E1,1.622998E1,6.239453E1,2.5894202E2,0E0,0E0,0E0,0E0,0E0,0E0,0E0,0E0,0E0,0E0,0E0,0E0,0E0,0E0,0E0,0E0,0E0,0E0,0E0,0E0,0E0,0E0,0E0,0E0],"parents":[2147483647,0,0,1,1,2,2,3,3,5,5,6,6,7,7,8,8,9,9,10,10,11,11,12,12,13,13,14,14,15,15,16,16,17,17,18,18,19,19,20,20,21,21,22,22,23,23,24,24],"right_children":[2,4,6,8,-1,10,12,14,16,18,20,22,24,26,28,30,32,34,36,38,40,42,44,46,48,-1,-1,-1,-1,-1,-1,-1,-1,-1,-1,-1,-1,-1,-1,-1,-1,-1,-1,-1,-1,-1,-1,-1,-1],"split_conditions":[1.5E0,8.365E0,4.5E0,3.997E2,1.0885946E-1,2.5E0,2.6150002E1,2.961E2,7.12E0,4.573723E1,2.575E1,9.372197E1,7.175E0,2.5150002E1,3.3565E1,3.2449997E1,4.6445E2,7.1949997E0,8.4444995E2,4.5930233E0,4.5302612E1,1.5E0,8.455E0,3.2394997E1,1.0028325E1,3.4860577E-2,2.4842044E-2,1.02917455E-1,3.8725592E-2,5.7348456E-2,9.820115E-2,2.6499216E-2,7.566022E-2,2.2611927E-2,-1.0913637E-2,2.9788185E-2,8.0252185E-2,-1.9063288E-2,-4.4277754E-2,-5.0624968E-3,-2.5232693E-2,-2.7731815E-2,-6.1961323E-2,-6.858173E-2,-5.2283477E-2,-4.1917935E-2,-6.31741E-2,-4.5452364E-2,-1.537093E-2],"split_indices":[5,8,5,2,0,5,6,2,7,4,6,3,7,6,9,9,2,7,2,11,4,0,8,9,11,0,0,0,0,0,0,0,0,0,0,0,0,0,0,0,0,0,0,0,0,0,0,0,0],"split_type":[0,0,0,0,0,0,0,0,0,0,0,0,0,0,0,0,0,0,0,0,0,0,0,0,0,0,0,0,0,0,0,0,0,0,0,0,0,0,0,0,0,0,0,0,0,0,0,0,0],"sum_hessian":[1.0291174E5,2.5156014E4,7.775573E4,1.767172E4,7.4842925E3,3.6853406E4,4.0902324E4,1.0056578E4,7.6151426E3,1.4665956E4,2.2187451E4,1.8778488E4,2.2123834E4,6.2551483E2,9.431063E3,3.26523E3,4.349912E3,1.1166205E4,3.4997505E3,1.1637031E4,1.055042E4,2.5350728E3,1.6243415E4,1.0267401E4,1.1856434E4,4.664894E2,1.590254E2,8.906737E3,5.2432654E2,6.4457056E2,2.6206594E3,2.5131016E3,1.8368108E3,1.8581805E3,9.308025E3,2.9093733E3,5.9037714E2,3.8998235E3,7.7372075E3,4.73349E3,5.8169297E3,6.4023016E2,1.8948427E3,1.5533896E4,7.095182E2,1.6940117E3,8.57339E3,6.9868364E3,4.8695967E3],"tree_param":{"num_deleted":"0","num_feature":"14","num_nodes":"49","size_leaf_vector":"0"}},{"base_weights":[-6.173047E-1,-3.5830885E-1,-6.937592E-1,-2.5875545E-1,-6.093573E-1,-6.958992E-1,-6.682831E-1,-4.1760188E-1,-6.4487986E-2,-5.6082207E-1,-6.216243E-1,-6.9764197E-1,-5.325902E-1,-1.2813602E-1,-5.561266E-1,-3.6846837E-1,1.4211714E-1,-4.460446E-1,6.2068343E-2,-4.6230036E-1,-5.947834E-1,2.0629259E-2,-4.6800593E-1,3.6197934E-1,-1.7552106E-1],"categories":[],"categories_nodes":[],"categories_segments":[],"categories_sizes":[],"default_left":[1,1,1,1,1,0,1,1,1,0,0,0,0,1,1,1,1,0,0,0,0,0,0,0,0],"id":8,"left_children":[1,3,5,7,9,-1,11,13,15,-1,-1,-1,-1,17,19,21,23,-1,-1,-1,-1,-1,-1,-1,-1],"loss_changes":[1.9135E3,5.499292E2,2.2382812E0,4.8673828E2,2.1933594E0,0E0,2.169043E1,3.4744617E2,4.466196E2,0E0,0E0,0E0,0E0,1.7058188E2,1.9960327E1,1.11921265E2,2.9565192E2,0E0,0E0,0E0,0E0,0E0,0E0,0E0,0E0],"parents":[2147483647,0,0,1,1,2,2,3,3,4,4,6,6,7,7,8,8,13,13,14,14,15,15,16,16],"right_children":[2,4,6,8,10,-1,12,14,16,-1,-1,-1,-1,18,20,22,24,-1,-1,-1,-1,-1,-1,-1,-1],"split_conditions":[1.5E0,8.365E0,8.505E0,3.997E2,8E0,-6.958992E-2,2.74E1,4.13E1,7.12E0,-5.6082208E-2,-6.216243E-2,-6.97642E-2,-5.3259023E-2,3.94E1,7.1800003E0,3.2449997E1,4.6445E2,-4.460446E-2,6.206834E-3,-4.6230037E-2,-5.9478343E-2,2.0629258E-3,-4.6800595E-2,3.6197934E-2,-1.7552106E-2],"split_indices":[5,8,8,2,0,0,6,1,7,0,0,0,0,1,7,9,2,0,0,0,0,0,0,0,0],"split_type":[0,0,0,0,0,0,0,0,0,0,0,0,0,0,0,0,0,0,0,0,0,0,0,0,0],"sum_hessian":[9.6699336E4,2.2043604E4,7.4655734E4,1.5788628E4,6.254975E3,6.8810016E4,5.845718E3,8.682731E3,7.105896E3,1.2878293E3,4.967146E3,4.796438E3,1.0492798E3,2.813238E3,5.8694937E3,2.8769963E3,4.2288994E3,1.0545575E3,1.7586805E3,1.7239729E3,4.145521E3,5.8417413E2,2.2928223E3,2.5008645E3,1.728035E3],"tree_param":{"num_deleted":"0","num_feature":"14","num_nodes":"25","size_leaf_vector":"0"}},{"base_weights":[5.383784E-1,-6.781609E-1,8.105488E-1,5.945075E-1,9.156199E-1,6.1059666E-1,-2.871908E-1,7.847331E-1,9.464964E-1,5.307314E-1,6.998251E-1,-3.30451E-1,-1.6598673E-1,7.652963E-1,1.0533292E0,1.0180959E0,8.830625E-1,6.316946E-1,3.8553798E-1,8.159451E-1,5.040461E-1,8.8219255E-1,7.429046E-1,9.5765024E-1,1.0354787E0,1.0031426E0,8.126351E-1],"categories":[],"categories_nodes":[],"categories_segments":[],"categories_sizes":[],"default_left":[1,0,1,1,1,1,1,1,1,1,1,0,0,1,0,1,1,0,0,0,0,0,0,0,0,0,0],"id":9,"left_children":[1,-1,3,5,7,9,11,13,15,17,19,-1,-1,21,-1,23,25,-1,-1,-1,-1,-1,-1,-1,-1,-1,-1],"loss_changes":[3.6577434E4,0E0,2.047125E3,4.1960645E2,2.4295703E2,2.051748E2,2.222557E0,5.7955566E1,2.2032812E2,2.2334033E2,3.0962598E2,0E0,0E0,2.6062012E1,0E0,2.1248047E1,2.1778906E2,0E0,0E0,0E0,0E0,0E0,0E0,0E0,0E0,0E0,0E0],"parents":[2147483647,0,0,2,2,3,3,4,4,5,5,6,6,7,7,8,8,9,9,10,10,13,13,15,15,16,16],"right_children":[2,-1,4,6,8,10,12,14,16,18,20,-1,-1,22,-1,24,26,-1,-1,-1,-1,-1,-1,-1,-1,-1,-1],"split_conditions":[1.5E0,-6.781609E-2,3.5E0,9.348E2,4.5E0,2.5E0,7.6800003E0,5.1465E2,2.6150002E1,4.2975E2,2.665E1,-3.3045102E-2,-1.6598674E-2,8.065001E0,1.05332926E-1,5.5E0,7.05E0,6.3169464E-2,3.85538E-2,8.159451E-2,5.040461E-2,8.8219255E-2,7.429046E-2,9.5765024E-2,1.0354787E-1,1.0031426E-1,8.126351E-2],"split_indices":[5,0,5,2,5,5,7,2,6,2,6,0,0,8,0,5,7,0,0,0,0,0,0,0,0,0,0],"split_type":[0,0,0,0,0,0,0,0,0,0,0,0,0,0,0,0,0,0,0,0,0,0,0,0,0,0,0],"sum_hessian":[1.1046741E5,2.0195041E4,9.027237E4,2.9543287E4,6.072908E4,2.9015262E4,5.280259E2,1.1602877E4,4.9126203E4,1.5320535E4,1.3694727E4,3.8178278E2,1.4624313E2,1.0826961E4,7.759169E2,2.3063299E4,2.6062902E4,9.030647E3,6.289888E3,8.590986E3,5.1037397E3,1.7271688E3,9.099792E3,5.176539E3,1.788676E4,9.624865E3,1.6438037E4],"tree_param":{"num_deleted":"0","num_feature":"14","num_nodes":"27","size_leaf_vector":"0"}},{"base_weights":[-4.140949E-2,8.1874967E-1,-3.3351094E-1,7.482717E-1,9.8495257E-1,-1.2563372E-1,-5.261764E-1,8.607957E-1,6.0199773E-1,5.335622E-2,-2.4591517E-1,-6.3768345E-1,-4.323464E-1,3.003697E-1,8.9752287E-1,8.220525E-1,4.3442434E-1,-4.569575E-2,3.684238E-1,-3.8809267E-1,-1.7762986E-1,-5.180734E-1,-6.5663296E-1,-6.071628E-1,-3.3549693E-1,3.3592603E-1,1.8097666E-1,9.289517E-1,3.6900192E-1,5.6368273E-1,8.831042E-1,2.3556764E-1,7.005783E-1,3.999592E-1,-8.0417395E-2,2.9152903E-1,7.299222E-1,-2.577617E-1,-5.5415195E-1,-1.1185176E-1,-2.418893E-1,-2.537737E-1,-6.066483E-1,-6.640701E-1,-4.913111E-1,-6.313302E-1,-2.9105666E-1,-4.3013784E-1,-1.9443429E-1],"categories":[],"categories_nodes":[],"categories_segments":[],"categories_sizes":[],"default_left":[1,1,1,1,0,1,1,1,1,1,1,1,1,1,1,1,1,1,1,1,1,1,1,1,1,0,0,0,0,0,0,0,0,0,0,0,0,0,0,0,0,0,0,0,0,0,0,0,0],"id":10,"left_children":[1,3,5,7,-1,9,11,13,15,17,19,21,23,25,27,29,31,33,35,37,39,41,43,45,47,-1,-1,-1,-1,-1,-1,-1,-1,-1,-1,-1,-1,-1,-1,-1,-1,-1,-1,-1,-1,-1,-1,-1,-1],"loss_changes":[2.5465729E4,2.984922E2,3.0296494E3,2.9512402E2,0E0,7.8383765E2,4.0947852E2,2.083999E2,2.880642E2,4.5680765E2,2.1075159E2,3.913672E1,3.600039E2,2.0979767E0,1.5727441E2,5.156543E1,2.3517822E2,1.7188406E2,9.608472E1,1.5181494E2,6.1818695E1,5.6688416E1,1.7541016E1,5.6950928E1,1.8262183E2,0E0,0E0,0E0,0E0,0E0,0E0,0E0,0E0,0E0,0E0,0E0,0E0,0E0,0E0,0E0,0E0,0E0,0E0,0E0,0E0,0E0,0E0,0E0,0E0],"parents":[2147483647,0,0,1,1,2,2,3,3,5,5,6,6,7,7,8,8,9,9,10,10,11,11,12,12,13,13,14,14,15,15,16,16,17,17,18,18,19,19,20,20,21,21,22,22,23,23,24,24],"right_children":[2,4,6,8,-1,10,12,14,16,18,20,22,24,26,28,30,32,34,36,38,40,42,44,46,48,-1,-1,-1,-1,-1,-1,-1,-1,-1,-1,-1,-1,-1,-1,-1,-1,-1,-1,-1,-1,-1,-1,-1,-1],"split_conditions":[1.5E0,8.365E0,4.5E0,3.997E2,9.849526E-2,2.5E0,2.6150002E1,2.961E2,7.12E0,4.573723E1,2.525E1,9.372197E1,7.05E0,2.5150002E1,3.3565E1,3.2449997E1,4.6445E2,7.185E0,8.4444995E2,1.5845751E1,4.5302612E1,1.5E0,8.455E0,1.3660885E1,1.0028325E1,3.3592604E-2,1.8097667E-2,9.289517E-2,3.6900192E-2,5.6368273E-2,8.831042E-2,2.3556765E-2,7.005783E-2,3.999592E-2,-8.041739E-3,2.9152904E-2,7.299222E-2,-2.5776168E-2,-5.5415194E-2,-1.1185176E-2,-2.418893E-2,-2.5377369E-2,-6.0664833E-2,-6.640702E-2,-4.913111E-2,-6.313302E-2,-2.9105667E-2,-4.3013785E-2,-1.9443428E-2],"split_indices":[5,8,5,2,0,5,6,2,7,4,6,3,7,6,9,9,2,7,2,11,4,0,8,12,11,0,0,0,0,0,0,0,0,0,0,0,0,0,0,0,0,0,0,0,0,0,0,0,0],"split_type":[0,0,0,0,0,0,0,0,0,0,0,0,0,0,0,0,0,0,0,0,0,0,0,0,0,0,0,0,0,0,0,0,0,0,0,0,0,0,0,0,0,0,0,0,0,0,0,0,0],"sum_hessian":[1.0135448E5,2.5692334E4,7.566214E4,1.8049854E4,7.64248E3,3.6397617E4,3.9264523E4,1.0195246E4,7.8546074E3,1.4625606E4,2.1772012E4,1.793464E4,2.1329883E4,6.29286E2,9.565961E3,3.391315E3,4.463293E3,1.1125589E4,3.5000176E3,7.0577266E3,1.4714285E4,2.463842E3,1.54708E4,7.5985913E3,1.3731292E4,4.7703232E2,1.5225372E2,9.026543E3,5.3941785E2,6.5327625E2,2.7380386E3,2.5578442E3,1.9054486E3,8.013161E2,1.0324272E4,2.8898804E3,6.101374E2,3.9590532E3,3.0986733E3,7.280265E3,7.4340195E3,6.222525E2,1.8415894E3,1.4796115E4,6.746845E2,7.055047E3,5.435442E2,8.212364E3,5.518928E3],"tree_param":{"num_deleted":"0","num_feature":"14","num_nodes":"49","size_leaf_vector":"0"}},{"base_weights":[-5.947059E-1,-3.3503887E-1,-6.7290974E-1,-2.3748815E-1,-5.8690387E-1,-6.7514354E-1,-6.4638305E-1,-3.9258233E-1,-5.057968E-2,-5.283588E-1,-6.0194534E-1,-6.767333E-1,-5.114959E-1,-1.1251112E-1,-5.3149515E-1,8.2361E-2,-4.3044695E-1,6.876815E-2,-4.521208E-1,-4.4315845E-1,-5.6849843E-1,-2.3341766E-1,1.947383E-1,-4.7103113E-1,-3.4220666E-1],"categories":[],"categories_nodes":[],"categories_segments":[],"categories_sizes":[],"default_left":[1,1,1,1,1,0,1,1,1,0,0,0,0,1,1,1,1,0,0,0,0,0,0,0,0],"id":11,"left_children":[1,3,5,7,9,-1,11,13,15,-1,-1,-1,-1,17,19,21,23,-1,-1,-1,-1,-1,-1,-1,-1],"loss_changes":[1.8766191E3,5.2504443E2,2.453125E0,4.4701532E2,3.8115234E0,0E0,2.1300049E1,3.2739087E2,3.541003E2,0E0,0E0,0E0,0E0,1.7277156E2,1.7154297E1,1.840888E2,5.5358276E0,0E0,0E0,0E0,0E0,0E0,0E0,0E0,0E0],"parents":[2147483647,0,0,1,1,2,2,3,3,4,4,6,6,7,7,8,8,13,13,14,14,15,15,16,16],"right_children":[2,4,6,8,10,-1,12,14,16,-1,-1,-1,-1,18,20,22,24,-1,-1,-1,-1,-1,-1,-1,-1],"split_conditions":[1.5E0,8.365E0,8.505E0,3.997E2,8E0,-6.751435E-2,2.74E1,4.13E1,2.74E1,-5.283588E-2,-6.0194533E-2,-6.767333E-2,-5.1149588E-2,2.675E1,7.1800003E0,2.495E1,1.05E1,6.876815E-3,-4.5212083E-2,-4.4315845E-2,-5.6849845E-2,-2.3341766E-2,1.947383E-2,-4.7103114E-2,-3.4220666E-2],"split_indices":[5,8,8,2,0,0,6,1,6,0,0,0,0,6,7,6,0,0,0,0,0,0,0,0,0],"split_type":[0,0,0,0,0,0,0,0,0,0,0,0,0,0,0,0,0,0,0,0,0,0,0,0,0],"sum_hessian":[9.2472266E4,2.140789E4,7.1064375E4,1.5435447E4,5.9724434E3,6.5487562E4,5.5768125E3,8.432128E3,7.003319E3,1.2417751E3,4.7306685E3,4.5431504E3,1.0336621E3,2.7986323E3,5.633496E3,5.186404E3,1.8169149E3,1.8232551E3,9.753771E2,1.6749485E3,3.9585476E3,1.3586475E3,3.8277563E3,1.2337897E3,5.8312524E2],"tree_param":{"num_deleted":"0","num_feature":"14","num_nodes":"25","size_leaf_vector":"0"}},{"base_weights":[4.967491E-1,-6.600918E-1,7.401295E-1,5.441692E-1,8.356075E-1,5.5746853E-1,-2.1596827E-1,7.1634287E-1,8.639041E-1,5.733614E-1,1.4745706E-1,-2.563799E-1,-1.0237587E-1,6.985915E-1,9.6303326E-1,9.3331486E-1,8.0273014E-1,6.346283E-1,4.786764E-1,1.5688415E-1,7.498116E-2,8.138221E-1,6.763583E-1,9.5260864E-1,8.82984E-1,9.1682684E-1,7.3652446E-1],"categories":[],"categories_nodes":[],"categories_segments":[],"categories_sizes":[],"default_left":[1,0,1,1,1,1,1,1,1,1,1,0,0,1,0,1,1,0,0,0,0,0,0,0,0,0,0],"id":12,"left_children":[1,-1,3,5,7,9,11,13,15,17,19,-1,-1,21,-1,23,25,-1,-1,-1,-1,-1,-1,-1,-1,-1,-1],"loss_changes":[3.0906172E4,0E0,1.6949688E3,3.0088477E2,2.0357812E2,1.8952148E2,1.9580631E0,4.8924316E1,2.0672266E2,1.6168066E2,5.03561E-1,0E0,0E0,2.5952637E1,0E0,1.9722656E1,1.9560938E2,0E0,0E0,0E0,0E0,0E0,0E0,0E0,0E0,0E0,0E0],"parents":[2147483647,0,0,2,2,3,3,4,4,5,5,6,6,7,7,8,8,9,9,10,10,13,13,15,15,16,16],"right_children":[2,-1,4,6,8,10,12,14,16,18,20,-1,-1,22,-1,24,26,-1,-1,-1,-1,-1,-1,-1,-1,-1,-1],"split_conditions":[1.5E0,-6.6009186E-2,3.5E0,9.348E2,4.5E0,5.8551125E1,7.6800003E0,5.1465E2,2.6150002E1,8.305E0,7.295E0,-2.563799E-2,-1.0237588E-2,8.065001E0,9.630333E-2,1.7022266E1,7.05E0,6.346283E-2,4.786764E-2,1.5688416E-2,7.498116E-3,8.138221E-2,6.763583E-2,9.5260866E-2,8.82984E-2,9.168269E-2,7.3652446E-2],"split_indices":[5,0,5,2,5,4,7,2,6,8,7,0,0,8,0,11,7,0,0,0,0,0,0,0,0,0,0],"split_type":[0,0,0,0,0,0,0,0,0,0,0,0,0,0,0,0,0,0,0,0,0,0,0,0,0,0,0],"sum_hessian":[1.0976757E5,1.907831E4,9.068926E4,2.971631E4,6.097295E4,2.9206889E4,5.0942148E2,1.1704098E4,4.926885E4,2.8114283E4,1.0926044E3,3.6832553E2,1.4109595E2,1.0925782E4,7.7831525E2,2.3066254E4,2.6202598E4,1.70595E4,1.1054785E4,9.5360474E2,1.3899962E2,1.7540881E3,9.171694E3,1.6647012E4,6.419242E3,9.611128E3,1.659147E4],"tree_param":{"num_deleted":"0","num_feature":"14","num_nodes":"27","size_leaf_vector":"0"}},{"base_weights":[-3.885774E-2,7.466612E-1,-3.1382734E-1,6.822398E-1,8.9994144E-1,-1.161956E-1,-5.029577E-1,8.1870514E-1,5.802603E-1,8.5923094E-1,9.1011184E-1,4.7255162E-2,-2.2895323E-1,-6.146365E-1,-4.104375E-1,2.6537004E-1,8.68011E-1,3.1553108E-1,6.9575477E-1,-4.2334564E-2,3.2686543E-1,-3.627353E-1,-1.6548465E-1,-4.833359E-1,-6.355697E-1,-5.877352E-1,-3.153926E-1,2.9637972E-1,1.690145E-1,9.0898436E-1,8.300741E-1,7.6854146E-1,1.21651135E-1,7.4294174E-1,4.7611225E-1,2.2206189E-1,-9.656428E-2,2.562077E-1,6.7536515E-1,-4.4458383E-1,-1.0804235E-1,-1.1052232E-1,-2.3407316E-1,-2.1693465E-1,-5.769005E-1,-6.443335E-1,-4.474607E-1,-6.117655E-1,-2.776264E-1,-4.631274E-1,-2.2120701E-1],"categories":[],"categories_nodes":[],"categories_segments":[],"categories_sizes":[],"default_left":[1,1,1,1,1,1,1,1,1,0,0,1,1,1,1,1,1,1,1,1,1,1,1,1,1,1,1,0,0,0,0,0,0,0,0,0,0,0,0,0,0,0,0,0,0,0,0,0,0,0,0],"id":13,"left_children":[1,3,5,7,9,11,13,15,17,-1,-1,19,21,23,25,27,29,31,33,35,37,39,41,43,45,47,49,-1,-1,-1,-1,-1,-1,-1,-1,-1,-1,-1,-1,-1,-1,-1,-1,-1,-1,-1,-1,-1,-1,-1,-1],"loss_changes":[2.1437914E4,2.5191895E2,2.7473662E3,2.5040527E2,5.9814453E-1,6.6287085E2,3.8686523E2,2.09979E2,3.1621094E2,0E0,0E0,3.6792566E2,1.801101E2,4.5335938E1,3.4525024E2,1.3874855E0,8.559082E0,2.763976E2,7.331177E1,1.5923033E2,8.6655914E1,1.4202264E2,5.4067383E1,5.7661682E1,2.2794922E1,5.2355957E1,1.8547058E2,0E0,0E0,0E0,0E0,0E0,0E0,0E0,0E0,0E0,0E0,0E0,0E0,0E0,0E0,0E0,0E0,0E0,0E0,0E0,0E0,0E0,0E0,0E0,0E0],"parents":[2147483647,0,0,1,1,2,2,3,3,4,4,5,5,6,6,7,7,8,8,11,11,12,12,13,13,14,14,15,15,16,16,17,17,18,18,19,19,20,20,21,21,22,22,23,23,24,24,25,25,26,26],"right_children":[2,4,6,8,10,12,14,16,18,-1,-1,20,22,24,26,28,30,32,34,36,38,40,42,44,46,48,50,-1,-1,-1,-1,-1,-1,-1,-1,-1,-1,-1,-1,-1,-1,-1,-1,-1,-1,-1,-1,-1,-1,-1,-1],"split_conditions":[1.5E0,8.365E0,4.5E0,1.0985468E2,8E0,2.5E0,2.6150002E1,2.961E2,4.38E1,8.59231E-2,9.101119E-2,4.573723E1,2.525E1,9.372197E1,7.05E0,2.5150002E1,7.8050003E0,2.495E1,7.3050003E0,7.1949997E0,8.4444995E2,1.3423909E2,3.5E0,1.5E0,8.455E0,1.3660885E1,4.545E1,2.9637972E-2,1.690145E-2,9.089844E-2,8.300741E-2,7.685415E-2,1.2165113E-2,7.429417E-2,4.7611225E-2,2.220619E-2,-9.656428E-3,2.5620772E-2,6.753652E-2,-4.4458386E-2,-1.0804235E-2,-1.1052232E-2,-2.3407316E-2,-2.1693466E-2,-5.769005E-2,-6.443335E-2,-4.474607E-2,-6.117655E-2,-2.776264E-2,-4.6312742E-2,-2.2120701E-2],"split_indices":[5,8,5,3,0,5,6,2,1,0,0,4,6,3,7,6,8,6,7,7,2,3,5,0,8,12,1,0,0,0,0,0,0,0,0,0,0,0,0,0,0,0,0,0,0,0,0,0,0,0,0],"split_type":[0,0,0,0,0,0,0,0,0,0,0,0,0,0,0,0,0,0,0,0,0,0,0,0,0,0,0,0,0,0,0,0,0,0,0,0,0,0,0,0,0,0,0,0,0,0,0,0,0,0,0],"sum_hessian":[9.925237E4,2.573334E4,7.351902E4,1.8126865E4,7.606475E3,3.595488E4,3.7564145E4,7.745402E3,1.0381462E4,1.5571699E3,6.049305E3,1.4674617E4,2.1280262E4,1.7012426E4,2.055172E4,6.358822E2,7.10952E3,3.1571746E3,7.2242876E3,1.1111623E4,3.5629946E3,6.8406797E3,1.4439581E4,2.3492124E3,1.4663214E4,7.166866E3,1.3384854E4,4.7164172E2,1.642405E2,3.3942646E3,3.7152551E3,9.438047E2,2.2133699E3,5.9410137E3,1.2832738E3,1.8875168E3,9.224105E3,2.966206E3,5.9678864E2,5.1734575E3,1.6672224E3,8.0255913E3,6.41399E3,6.1426276E2,1.7349497E3,1.4003085E4,6.601284E2,6.647551E3,5.193154E2,5.2053975E3,8.1794565E3],"tree_param":{"num_deleted":"0","num_feature":"14","num_nodes":"51","size_leaf_vector":"0"}},{"base_weights":[-5.751311E-1,-3.1603518E-1,-6.549283E-1,-2.2082217E-1,-5.689507E-1,-6.5729254E-1,-6.271297E-1,-3.7121817E-1,-4.4232532E-2,-5.222183E-1,-5.8078945E-1,-6.586533E-1,-4.8839253E-1,-1.075744E-1,-5.068638E-1,-3.1867233E-1,1.3176377E-1,-3.9474058E-1,5.698121E-2,-4.2618692E-1,-5.4644465E-1,1.9502096E-2,-4.1635308E-1,3.2267362E-1,-1.511553E-1],"categories":[],"categories_nodes":[],"categories_segments":[],"categories_sizes":[],"default_left":[1,1,1,1,1,0,1,1,1,0,0,0,0,1,1,1,1,0,0,0,0,0,0,0,0],"id":14,"left_children":[1,3,5,7,9,-1,11,13,15,-1,-1,-1,-1,17,19,21,23,-1,-1,-1,-1,-1,-1,-1,-1],"loss_changes":[1.8268066E3,5.005298E2,2.7480469E0,4.0146875E2,1.7425537E0,0E0,2.1942139E1,2.914818E2,3.3661414E2,0E0,0E0,0E0,0E0,1.316824E2,1.6010132E1,9.037695E1,2.2932596E2,0E0,0E0,0E0,0E0,0E0,0E0,0E0,0E0],"parents":[2147483647,0,0,1,1,2,2,3,3,4,4,6,6,7,7,8,8,13,13,14,14,15,15,16,16],"right_children":[2,4,6,8,10,-1,12,14,16,-1,-1,-1,-1,18,20,22,24,-1,-1,-1,-1,-1,-1,-1,-1],"split_conditions":[1.5E0,8.365E0,8.505E0,3.997E2,8E0,-6.572925E-2,2.74E1,4.13E1,7.12E0,-5.222183E-2,-5.8078945E-2,-6.586533E-2,-4.8839252E-2,3.94E1,7.1949997E0,3.2449997E1,4.6445E2,-3.947406E-2,5.698121E-3,-4.2618692E-2,-5.4644465E-2,1.9502096E-3,-4.163531E-2,3.2267362E-2,-1.5115529E-2],"split_indices":[5,8,8,2,0,0,6,1,7,0,0,0,0,1,7,9,2,0,0,0,0,0,0,0,0],"split_type":[0,0,0,0,0,0,0,0,0,0,0,0,0,0,0,0,0,0,0,0,0,0,0,0,0],"sum_hessian":[8.841377E4,2.082241E4,6.759137E4,1.5131723E4,5.690688E3,6.223949E4,5.3518755E3,8.1682817E3,6.963441E3,1.1764254E3,4.5142627E3,4.352054E3,9.998214E2,2.7780217E3,5.39026E3,2.7226885E3,4.2407524E3,1.01369666E3,1.7643251E3,1.7863064E3,3.6039534E3,6.080746E2,2.114614E3,2.5341426E3,1.7066099E3],"tree_param":{"num_deleted":"0","num_feature":"14","num_nodes":"25","size_leaf_vector":"0"}},{"base_weights":[4.6083784E-1,-6.442306E-1,6.806257E-1,4.9896386E-1,7.7052456E-1,5.1041293E-1,-1.9586141E-1,6.954155E-1,8.1431895E-1,8.5311526E-1,4.939084E-1,-2.5482652E-1,-1.2828931E-1,7.111706E-1,4.0182358E-1,8.817541E-1,7.5697464E-1,9.509804E-1,7.341376E-1,5.0815076E-1,1.3938925E-1,6.8836915E-1,9.139371E-1,3.463936E-1,4.4604364E-1,8.872472E-1,8.0178684E-1,8.2925236E-1,6.650259E-1],"categories":[],"categories_nodes":[],"categories_segments":[],"categories_sizes":[],"default_left":[1,0,1,1,1,1,1,1,1,1,1,0,0,1,1,1,1,0,0,0,0,0,0,0,0,0,0,0,0],"id":15,"left_children":[1,-1,3,5,7,9,11,13,15,17,19,-1,-1,21,23,25,27,-1,-1,-1,-1,-1,-1,-1,-1,-1,-1,-1,-1],"loss_changes":[2.6467395E4,0E0,1.4827617E3,2.3983691E2,1.9791016E2,1.6571338E2,1.5253525E0,1.0225391E2,1.4615234E2,1.340979E1,1.4194727E2,0E0,0E0,9.6075195E1,1.8640137E0,5.3447266E0,1.359414E2,0E0,0E0,0E0,0E0,0E0,0E0,0E0,0E0,0E0,0E0,0E0,0E0],"parents":[2147483647,0,0,2,2,3,3,4,4,5,5,6,6,7,7,8,8,9,9,10,10,13,13,14,14,15,15,16,16],"right_children":[2,-1,4,6,8,10,12,14,16,18,20,-1,-1,22,24,26,28,-1,-1,-1,-1,-1,-1,-1,-1,-1,-1,-1,-1],"split_conditions":[1.5E0,-6.442306E-2,3.5E0,9.348E2,5.5E0,3.3020653E1,7.665E0,5.54E1,2.6150002E1,9E0,5.8551125E1,-2.5482653E-2,-1.2828931E-2,5.1465E2,1.5E1,8.455E0,7.175E0,9.509804E-2,7.341376E-2,5.0815076E-2,1.3938925E-2,6.883692E-2,9.139371E-2,3.463936E-2,4.4604365E-2,8.8724725E-2,8.0178685E-2,8.292524E-2,6.650259E-2],"split_indices":[5,0,5,2,5,4,7,1,6,0,4,0,0,2,0,8,7,0,0,0,0,0,0,0,0,0,0,0,0],"split_type":[0,0,0,0,0,0,0,0,0,0,0,0,0,0,0,0,0,0,0,0,0,0,0,0,0,0,0,0,0],"sum_hessian":[1.089699E5,1.8076553E4,9.089334E4,3.0095652E4,6.0797695E4,2.9609463E4,4.8618982E2,2.2407574E4,3.839012E4,1.3553601E3,2.8254102E4,2.5024745E2,2.3594237E2,2.1261766E4,1.1458085E3,1.7628148E4,2.0761973E4,7.352125E2,6.201476E2,2.7159738E4,1.0943636E3,1.9120908E4,2.140858E3,5.224113E2,6.2339716E2,1.6473924E4,1.1542235E3,1.1613843E4,9.14813E3],"tree_param":{"num_deleted":"0","num_feature":"14","num_nodes":"29","size_leaf_vector":"0"}},{"base_weights":[-3.236589E-2,6.8883145E-1,-2.9225975E-1,6.291981E-1,8.3267945E-1,-1.0236595E-1,-4.7961026E-1,7.2443676E-1,5.047492E-1,5.2983988E-2,-2.1104637E-1,-5.956016E-1,-3.8563988E-1,5.4633707E-1,8.0564356E-1,4.0070587E-1,7.6783884E-1,-2.9350897E-2,3.081906E-1,-2.9879013E-1,-1.17202505E-1,-4.545676E-1,-6.181575E-1,-5.314258E-1,-2.6712647E-1,7.387892E-1,4.2043385E-1,7.433239E-1,8.356079E-1,-1.1649145E-1,4.473445E-1,8.0029905E-1,6.9869685E-1,3.711084E-1,-6.228509E-2,2.4691279E-1,6.054116E-1,-1.4291698E-1,-3.797476E-1,-4.1515082E-2,-2.3032309E-1,-1.7966267E-1,-5.5298775E-1,-6.257463E-1,-4.5453286E-1,-3.5869926E-1,-5.6622833E-1,-3.914696E-1,-9.424534E-2],"categories":[],"categories_nodes":[],"categories_segments":[],"categories_sizes":[],"default_left":[1,1,1,1,0,1,1,1,1,1,1,1,1,1,1,1,1,1,1,1,1,1,1,1,1,0,0,0,0,0,0,0,0,0,0,0,0,0,0,0,0,0,0,0,0,0,0,0,0],"id":16,"left_children":[1,3,5,7,-1,9,11,13,15,17,19,21,23,25,27,29,31,33,35,37,39,41,43,45,47,-1,-1,-1,-1,-1,-1,-1,-1,-1,-1,-1,-1,-1,-1,-1,-1,-1,-1,-1,-1,-1,-1,-1,-1],"loss_changes":[1.818133E4,2.1843164E2,2.5362563E3,2.1380957E2,0E0,5.9813745E2,3.8999414E2,1.4700732E2,2.1440137E2,3.065547E2,1.7117303E2,4.9726074E1,3.417666E2,7.676874E1,1.0984375E1,1.3682306E2,2.949463E0,1.4503032E2,6.380728E1,1.3527191E2,8.600845E1,5.933618E1,1.58125E1,5.2309814E1,2.3479742E2,0E0,0E0,0E0,0E0,0E0,0E0,0E0,0E0,0E0,0E0,0E0,0E0,0E0,0E0,0E0,0E0,0E0,0E0,0E0,0E0,0E0,0E0,0E0,0E0],"parents":[2147483647,0,0,1,1,2,2,3,3,5,5,6,6,7,7,8,8,9,9,10,10,11,11,12,12,13,13,14,14,15,15,16,16,17,17,18,18,19,19,20,20,21,21,22,22,23,23,24,24],"right_children":[2,4,6,8,-1,10,12,14,16,18,20,22,24,26,28,30,32,34,36,38,40,42,44,46,48,-1,-1,-1,-1,-1,-1,-1,-1,-1,-1,-1,-1,-1,-1,-1,-1,-1,-1,-1,-1,-1,-1,-1,-1],"split_conditions":[1.5E0,8.365E0,4.5E0,3.997E2,8.326795E-2,2.5E0,2.6150002E1,4.13E1,2.74E1,4.573723E1,2.575E1,9.372197E1,7.175E0,3.94E1,7.1949997E0,4.24E1,1.05E1,7.185E0,8.4444995E2,4.5930233E0,3.5E0,1.5E0,8.455E0,3.2394997E1,1.0028325E1,7.387892E-2,4.2043384E-2,7.433239E-2,8.356079E-2,-1.1649146E-2,4.4734452E-2,8.0029905E-2,6.986969E-2,3.7110843E-2,-6.2285094E-3,2.469128E-2,6.054116E-2,-1.4291698E-2,-3.797476E-2,-4.151508E-3,-2.303231E-2,-1.7966269E-2,-5.5298775E-2,-6.257463E-2,-4.5453288E-2,-3.5869926E-2,-5.6622833E-2,-3.914696E-2,-9.424534E-3],"split_indices":[5,8,5,2,0,5,6,1,6,4,6,3,7,1,7,1,0,7,2,11,5,0,8,9,11,0,0,0,0,0,0,0,0,0,0,0,0,0,0,0,0,0,0,0,0,0,0,0,0],"split_type":[0,0,0,0,0,0,0,0,0,0,0,0,0,0,0,0,0,0,0,0,0,0,0,0,0,0,0,0,0,0,0,0,0,0,0,0,0,0,0,0,0,0,0,0,0,0,0,0,0],"sum_hessian":[9.700089E4,2.5694357E4,7.130653E4,1.8172941E4,7.521416E3,3.541632E4,3.589021E4,1.0287348E4,7.8855938E3,1.4574522E4,2.0841799E4,1.6055861E4,1.9834352E4,3.2279565E3,7.059391E3,5.6553955E3,2.2301982E3,1.1017135E4,3.5573872E3,1.0764335E4,1.0077464E4,2.2228247E3,1.3833036E4,8.888496E3,1.0945855E4,1.271526E3,1.9564307E3,2.3113818E3,4.7480093E3,4.6589816E2,5.189497E3,1.5006492E3,7.295491E2,8.3412024E2,1.0183015E4,2.953634E3,6.037532E2,3.6848164E3,7.0795186E3,6.0438286E3,4.0336355E3,5.8942957E2,1.6333953E3,1.3211367E4,6.216694E2,1.4973114E3,7.3911846E3,6.3625806E3,4.583275E3],"tree_param":{"num_deleted":"0","num_feature":"14","num_nodes":"49","size_leaf_vector":"0"}},{"base_weights":[-5.5747986E-1,-2.9898536E-1,-6.389243E-1,-2.1010685E-1,-5.4180497E-1,-6.418192E-1,-6.191758E-1,-3.5327557E-1,-4.6085086E-2,-4.8334858E-1,-5.5669147E-1,-6.4369226E-1,-4.8998585E-1,-9.928771E-2,-4.862211E-1,7.0907354E-2,-3.9711776E-1,6.106967E-2,-4.0971878E-1,-3.9595798E-1,-5.23902E-1,1.2347679E-1,-5.333737E-1,-4.2488596E-1,-2.5277814E-1],"categories":[],"categories_nodes":[],"categories_segments":[],"categories_sizes":[],"default_left":[1,1,1,1,1,0,1,1,1,0,0,0,0,1,1,1,1,0,0,0,0,0,0,0,0],"id":17,"left_children":[1,3,5,7,9,-1,11,13,15,-1,-1,-1,-1,17,19,21,23,-1,-1,-1,-1,-1,-1,-1,-1],"loss_changes":[1.7713027E3,4.3454846E2,2.0039062E0,3.4652002E2,3.3920898E0,0E0,2.4701904E1,2.6561786E2,2.8331287E2,0E0,0E0,0E0,0E0,1.3542929E2,1.6467041E1,1.6377534E2,6.127136E0,0E0,0E0,0E0,0E0,0E0,0E0,0E0,0E0],"parents":[2147483647,0,0,1,1,2,2,3,3,4,4,6,6,7,7,8,8,13,13,14,14,15,15,16,16],"right_children":[2,4,6,8,10,-1,12,14,16,-1,-1,-1,-1,18,20,22,24,-1,-1,-1,-1,-1,-1,-1,-1],"split_conditions":[1.5E0,8.365E0,8.425E0,3.997E2,8E0,-6.418192E-2,2.745E1,4.13E1,2.74E1,-4.833486E-2,-5.5669148E-2,-6.4369224E-2,-4.8998587E-2,2.675E1,7.1800003E0,2.6559793E1,8.23E0,6.106967E-3,-4.097188E-2,-3.9595798E-2,-5.23902E-2,1.2347679E-2,-5.3337373E-2,-4.2488597E-2,-2.5277814E-2],"split_indices":[5,8,8,2,0,0,6,1,6,0,0,0,0,6,7,12,8,0,0,0,0,0,0,0,0],"split_type":[0,0,0,0,0,0,0,0,0,0,0,0,0,0,0,0,0,0,0,0,0,0,0,0,0],"sum_hessian":[8.41884E4,2.017439E4,6.401401E4,1.4773042E4,5.401348E3,5.5758473E4,8.255538E3,7.88407E3,6.888972E3,1.1167458E3,4.284602E3,6.928909E3,1.3266285E3,2.7120542E3,5.1720156E3,5.1653945E3,1.7235774E3,1.7866947E3,9.2535944E2,1.5344191E3,3.6375967E3,4.754249E3,4.111454E2,1.4380518E3,2.8552563E2],"tree_param":{"num_deleted":"0","num_feature":"14","num_nodes":"25","size_leaf_vector":"0"}},{"base_weights":[4.273654E-1,-6.30258E-1,6.278966E-1,4.9574104E-1,7.426773E-1,3.8284096E-1,5.669605E-1,8.104091E-1,6.8460965E-1,5.064926E-1,2.620436E-1,6.7295873E-1,5.144803E-1,7.305706E-1,8.2273614E-1,7.4504364E-1,5.724303E-1,5.526363E-1,2.4707362E-1,-5.397784E-1,3.1189907E-1,7.3455375E-1,4.6853626E-1,4.3730006E-1,5.8929515E-1,5.268416E-1,7.9807633E-1,8.282411E-1,7.0006865E-1,5.347024E-1,7.8266186E-1,6.731406E-1,4.0339196E-1],"categories":[],"categories_nodes":[],"categories_segments":[],"categories_sizes":[],"default_left":[1,0,1,1,1,1,1,1,1,1,1,1,1,1,1,1,1,0,0,0,0,0,0,0,0,0,0,0,0,0,0,0,0],"id":18,"left_children":[1,-1,3,5,7,9,11,13,15,17,19,21,23,25,27,29,31,-1,-1,-1,-1,-1,-1,-1,-1,-1,-1,-1,-1,-1,-1,-1,-1],"loss_changes":[2.2810715E4,0E0,1.369832E3,3.3679883E2,1.8822852E2,2.4207422E2,1.4179785E2,1.98125E1,1.7494824E2,9.522681E1,3.2911987E2,1.0576709E2,9.828711E1,3.9579834E1,1.0933594E1,1.3221484E2,1.5416553E2,0E0,0E0,0E0,0E0,0E0,0E0,0E0,0E0,0E0,0E0,0E0,0E0,0E0,0E0,0E0,0E0],"parents":[2147483647,0,0,2,2,3,3,4,4,5,5,6,6,7,7,8,8,9,9,10,10,11,11,12,12,13,13,14,14,15,15,16,16],"right_children":[2,-1,4,6,8,10,12,14,16,18,20,22,24,26,28,30,32,-1,-1,-1,-1,-1,-1,-1,-1,-1,-1,-1,-1,-1,-1,-1,-1],"split_conditions":[1.5E0,-6.30258E-2,4.5E0,2.5E0,2.6150002E1,1.0546684E2,2.525E1,9.372197E1,8.315001E0,2.545E1,2.5E0,1.3423909E2,4.5302612E1,1.5E0,8.455E0,7.745E0,1.362457E2,5.5263635E-2,2.4707362E-2,-5.3977843E-2,3.1189907E-2,7.345538E-2,4.6853628E-2,4.3730006E-2,5.8929514E-2,5.2684158E-2,7.980763E-2,8.282411E-2,7.000687E-2,5.3470243E-2,7.826619E-2,6.731406E-2,4.0339198E-2],"split_indices":[5,0,5,5,6,3,6,3,8,6,0,3,4,0,8,8,3,0,0,0,0,0,0,0,0,0,0,0,0,0,0,0,0],"split_type":[0,0,0,0,0,0,0,0,0,0,0,0,0,0,0,0,0,0,0,0,0,0,0,0,0,0,0,0,0,0,0,0,0],"sum_hessian":[1.07550984E5,1.7140896E4,9.0410086E4,4.2030863E4,4.8379227E4,1.62659E4,2.5764963E4,2.2317395E4,2.6061832E4,8.0323174E3,8.233583E3,8.521858E3,1.7243104E4,3.0038386E3,1.9313555E4,1.6927809E4,9.134022E3,6.8151074E3,1.2172101E3,4.802279E2,7.753355E3,6.5429126E3,1.9789463E3,8.497327E3,8.745776E3,7.5348236E2,2.2503562E3,1.8470734E4,8.4282025E2,2.5744775E3,1.4353332E4,5.718273E3,3.4157495E3],"tree_param":{"num_deleted":"0","num_feature":"14","num_nodes":"33","size_leaf_vector":"0"}},{"base_weights":[-3.0040685E-2,6.3483226E-1,-2.747079E-1,5.764094E-1,7.7757853E-1,-9.3285576E-2,-4.601651E-1,6.9820863E-1,4.874469E-1,5.6821402E-2,-1.9982965E-1,-5.8079803E-1,-3.6453173E-1,2.1631771E-1,7.4401724E-1,2.545979E-1,5.8923215E-1,-6.526509E-2,2.0816295E-1,-3.3202353E-1,-1.3902418E-1,-4.4429922E-1,-6.0295784E-1,-5.462002E-1,-2.7155858E-1,2.4781169E-1,1.18723474E-1,6.9401187E-1,7.7316236E-1,6.685609E-1,8.274668E-2,6.3173544E-1,4.0124476E-1,7.668709E-3,-3.1205752E-1,4.0040106E-1,-1.1896274E-1,-4.1963896E-1,-6.4740755E-2,-7.359891E-2,-2.0342027E-1,-1.6808183E-1,-5.468739E-1,-6.1117625E-1,-4.2898858E-1,-5.732731E-1,-2.039376E-1,-4.227328E-1,-1.7519677E-1],"categories":[],"categories_nodes":[],"categories_segments":[],"categories_sizes":[],"default_left":[1,1,1,1,0,1,1,1,1,1,1,1,1,1,1,1,1,1,1,1,1,1,1,1,1,0,0,0,0,0,0,0,0,0,0,0,0,0,0,0,0,0,0,0,0,0,0,0,0],"id":19,"left_children":[1,3,5,7,-1,9,11,13,15,17,19,21,23,25,27,29,31,33,35,37,39,41,43,45,47,-1,-1,-1,-1,-1,-1,-1,-1,-1,-1,-1,-1,-1,-1,-1,-1,-1,-1,-1,-1,-1,-1,-1,-1],"loss_changes":[1.5413417E4,2.1075586E2,2.329921E3,1.945376E2,0E0,5.601924E2,3.9395752E2,1.6732251E2,2.470293E2,2.686948E2,1.6414221E2,4.4475586E1,3.218296E2,1.6501732E0,8.148682E0,2.259756E2,5.686548E1,1.4505058E2,4.0866708E2,1.5048724E2,5.885147E1,5.938684E1,1.7306152E1,5.9010986E1,1.8356622E2,0E0,0E0,0E0,0E0,0E0,0E0,0E0,0E0,0E0,0E0,0E0,0E0,0E0,0E0,0E0,0E0,0E0,0E0,0E0,0E0,0E0,0E0,0E0,0E0],"parents":[2147483647,0,0,1,1,2,2,3,3,5,5,6,6,7,7,8,8,9,9,10,10,11,11,12,12,13,13,14,14,15,15,16,16,17,17,18,18,19,19,20,20,21,21,22,22,23,23,24,24],"right_children":[2,4,6,8,-1,10,12,14,16,18,20,22,24,26,28,30,32,34,36,38,40,42,44,46,48,-1,-1,-1,-1,-1,-1,-1,-1,-1,-1,-1,-1,-1,-1,-1,-1,-1,-1,-1,-1,-1,-1,-1,-1],"split_conditions":[1.5E0,8.365E0,4.5E0,1.0985468E2,7.775786E-2,2.5E0,2.6150002E1,2.961E2,4.38E1,4.2975E2,2.525E1,9.372197E1,7.05E0,2.5150002E1,7.3E0,2.495E1,7.3050003E0,3.959794E1,3.3335E1,1.3423909E2,4.5302612E1,1.5E0,8.455E0,1.3660885E1,4.545E1,2.478117E-2,1.1872347E-2,6.940119E-2,7.731624E-2,6.685609E-2,8.274668E-3,6.317355E-2,4.0124476E-2,7.668709E-4,-3.1205753E-2,4.0040106E-2,-1.1896274E-2,-4.1963898E-2,-6.4740754E-3,-7.3598907E-3,-2.0342028E-2,-1.6808184E-2,-5.4687392E-2,-6.1117627E-2,-4.289886E-2,-5.732731E-2,-2.039376E-2,-4.227328E-2,-1.7519677E-2],"split_indices":[5,8,5,3,0,5,6,2,1,2,6,3,7,6,7,6,7,4,9,3,4,0,8,12,1,0,0,0,0,0,0,0,0,0,0,0,0,0,0,0,0,0,0,0,0,0,0,0,0],"split_type":[0,0,0,0,0,0,0,0,0,0,0,0,0,0,0,0,0,0,0,0,0,0,0,0,0,0,0,0,0,0,0,0,0,0,0,0,0,0,0,0,0,0,0,0,0,0,0,0,0],"sum_hessian":[9.47513E4,2.5486664E4,6.926463E4,1.8093457E4,7.393208E3,3.501668E4,3.424795E4,7.6296074E3,1.046385E4,1.4532844E4,2.0483838E4,1.5137643E4,1.9110307E4,6.6470386E2,6.964904E3,3.186828E3,7.2770215E3,8.04054E3,6.4923037E3,6.4469546E3,1.4036883E4,2.1235159E3,1.3014127E4,6.4640312E3,1.2646275E4,4.9362405E2,1.7107982E2,2.5864155E3,4.378488E3,9.323153E2,2.2545125E3,5.9288486E3,1.3481726E3,6.2040063E3,1.8365336E3,4.0910168E3,2.4012869E3,4.852117E3,1.5948376E3,6.971566E3,7.0653164E3,5.783902E2,1.5451257E3,1.2419178E4,5.949496E2,5.986874E3,4.7715732E2,4.917634E3,7.728641E3],"tree_param":{"num_deleted":"0","num_feature":"14","num_nodes":"49","size_leaf_vector":"0"}},{"base_weights":[-5.3783107E-1,-2.70611E-1,-6.24418E-1,-1.8437928E-1,-5.146933E-1,-6.2706655E-1,-5.9330183E-1,-3.748317E-1,-6.1215118E-2,-4.5531502E-1,-5.33199E-1,-6.2919694E-1,-4.4137517E-1,2.6051262E-1,-4.4907004E-1,2.1469428E-1,-2.0256566E-1,2.1353018E-1,3.869731E-1,-5.0749165E-1,-3.810031E-1,-2.7860293E-1,3.9385176E-1,-3.7649634E-1,-1.2024877E-1],"categories":[],"categories_nodes":[],"categories_segments":[],"categories_sizes":[],"default_left":[1,1,1,1,1,0,1,1,1,0,0,0,0,1,1,1,1,0,0,0,0,0,0,0,0],"id":20,"left_children":[1,3,5,7,9,-1,11,13,15,-1,-1,-1,-1,17,19,21,23,-1,-1,-1,-1,-1,-1,-1,-1],"loss_changes":[1.8440391E3,4.1006262E2,3.3710938E0,3.3799915E2,4.36438E0,0E0,2.4677002E1,2.6741992E2,3.4193427E2,0E0,0E0,0E0,0E0,2.8325233E0,1.9089111E1,2.6252216E2,8.24969E1,0E0,0E0,0E0,0E0,0E0,0E0,0E0,0E0],"parents":[2147483647,0,0,1,1,2,2,3,3,4,4,6,6,7,7,8,8,13,13,14,14,15,15,16,16],"right_children":[2,4,6,8,10,-1,12,14,16,-1,-1,-1,-1,18,20,22,24,-1,-1,-1,-1,-1,-1,-1,-1],"split_conditions":[1.5E0,8.365E0,8.505E0,1.0985468E2,8.395E0,-6.270666E-2,2.74E1,2.961E2,4.38E1,-4.5531504E-2,-5.33199E-2,-6.29197E-2,-4.413752E-2,2.5150002E1,2.5099998E1,2.495E1,4.8300003E1,2.135302E-2,3.8697314E-2,-5.0749164E-2,-3.8100313E-2,-2.7860293E-2,3.9385177E-2,-3.7649635E-2,-1.2024878E-2],"split_indices":[5,8,8,3,8,0,6,2,1,0,0,0,0,6,6,6,1,0,0,0,0,0,0,0,0],"split_type":[0,0,0,0,0,0,0,0,0,0,0,0,0,0,0,0,0,0,0,0,0,0,0,0,0],"sum_hessian":[7.974314E4,1.9519312E4,6.0223824E4,1.442793E4,5.0913823E3,5.5452547E4,4.77128E3,5.662176E3,8.765754E3,1.2286652E3,3.8627173E3,3.8515625E3,9.1971735E2,5.907192E2,5.0714565E3,2.9669053E3,5.7988486E3,4.384302E2,1.5228896E2,2.7177083E3,2.3537483E3,7.8881714E2,2.1780881E3,1.8577698E3,3.941079E3],"tree_param":{"num_deleted":"0","num_feature":"14","num_nodes":"25","size_leaf_vector":"0"}},{"base_weights":[3.9934617E-1,-6.1788416E-1,5.827899E-1,4.5368576E-1,6.9709367E-1,3.4995013E-1,5.1984954E-1,7.6525986E-1,6.394396E-1,4.1012812E-1,1.3346192E-1,5.915282E-1,4.403121E-1,6.872198E-1,7.774769E-1,7.285853E-1,5.6231356E-1,2.0248155E-1,4.5033264E-1,1.922655E-1,-2.1763787E-1,4.8206654E-1,6.462296E-1,3.2961947E-1,5.309848E-1,4.9764445E-1,7.497334E-1,7.8240544E-1,6.675974E-1,6.0504854E-1,7.528386E-1,4.5992088E-1,6.779096E-1],"categories":[],"categories_nodes":[],"categories_segments":[],"categories_sizes":[],"default_left":[1,0,1,1,1,1,1,1,1,1,1,1,1,1,1,1,1,0,0,0,0,0,0,0,0,0,0,0,0,0,0,0,0],"id":21,"left_children":[1,-1,3,5,7,9,11,13,15,17,19,21,23,25,27,29,31,-1,-1,-1,-1,-1,-1,-1,-1,-1,-1,-1,-1,-1,-1,-1,-1],"loss_changes":[1.9619605E4,0E0,1.3130391E3,2.8609766E2,1.8375977E2,2.1177441E2,1.4429541E2,1.8626953E1,1.7436328E2,1.0571069E2,7.332702E1,7.892871E1,1.20562256E2,3.3316162E1,8.147461E0,3.3748047E1,1.6117676E2,0E0,0E0,0E0,0E0,0E0,0E0,0E0,0E0,0E0,0E0,0E0,0E0,0E0,0E0,0E0,0E0],"parents":[2147483647,0,0,2,2,3,3,4,4,5,5,6,6,7,7,8,8,9,9,10,10,11,11,12,12,13,13,14,14,15,15,16,16],"right_children":[2,-1,4,6,8,10,12,14,16,18,20,22,24,26,28,30,32,-1,-1,-1,-1,-1,-1,-1,-1,-1,-1,-1,-1,-1,-1,-1,-1],"split_conditions":[1.5E0,-6.1788417E-2,4.5E0,2.5E0,2.6150002E1,4.573723E1,2.575E1,9.372197E1,7.175E0,7.1949997E0,8.4444995E2,4.5930233E0,4.5302612E1,1.5E0,8.455E0,3.2394997E1,2.4418604E0,2.0248156E-2,4.5033265E-2,1.922655E-2,-2.1763787E-2,4.8206653E-2,6.462296E-2,3.2961946E-2,5.309848E-2,4.9764447E-2,7.497334E-2,7.824054E-2,6.675974E-2,6.0504854E-2,7.528386E-2,4.5992088E-2,6.779096E-2],"split_indices":[5,0,5,5,6,4,6,3,7,7,2,11,4,0,8,9,10,0,0,0,0,0,0,0,0,0,0,0,0,0,0,0,0],"split_type":[0,0,0,0,0,0,0,0,0,0,0,0,0,0,0,0,0,0,0,0,0,0,0,0,0,0,0,0,0,0,0,0,0],"sum_hessian":[1.0513729E5,1.6062096E4,8.9075195E4,4.1835945E4,4.7239246E4,1.6300467E4,2.5535479E4,2.1632668E4,2.560658E4,1.2750618E4,3.5498489E3,1.3421287E4,1.211419E4,2.946988E3,1.868568E4,1.1867819E4,1.3738761E4,2.0733218E3,1.0677297E4,3.0434248E3,5.064241E2,4.48152E3,8.939768E3,5.461949E3,6.652241E3,7.3698987E2,2.2099983E3,1.7868967E4,8.167126E2,1.9586127E3,9.909206E3,7.2926816E3,6.446079E3],"tree_param":{"num_deleted":"0","num_feature":"14","num_nodes":"33","size_leaf_vector":"0"}},{"base_weights":[-2.3624292E-2,5.910644E-1,-2.5298205E-1,5.341091E-1,7.316423E-1,-7.778185E-2,-4.3830317E-1,6.260119E-1,4.1751298E-1,7.034609E-1,7.415705E-1,5.3332664E-2,-1.7224403E-1,-5.644108E-1,-3.4081236E-1,1.8453962E-1,6.5644145E-1,5.888483E-1,2.9145476E-1,-6.458764E-2,1.9733891E-1,-3.0501136E-1,-1.1251279E-1,-4.2140898E-1,-5.8818E-1,-5.267089E-1,-2.4891901E-1,2.1899657E-1,7.828072E-2,6.82084E-1,2.5320745E-1,3.4823245E-1,6.4701986E-1,5.4047054E-1,1.5682574E-1,3.1768545E-3,-2.9684567E-1,3.7520704E-1,-1.1161221E-1,-3.9154E-1,-4.5813724E-2,-5.0722096E-2,-1.7390183E-1,-6.1870116E-1,-2.8441924E-1,-5.972199E-1,-4.002018E-1,-5.584143E-1,-1.4044483E-1,-1.3534114E-1,-3.796641E-1],"categories":[],"categories_nodes":[],"categories_segments":[],"categories_sizes":[],"default_left":[1,1,1,1,1,1,1,1,1,0,0,1,1,1,1,1,1,1,1,1,1,1,1,1,1,1,1,0,0,0,0,0,0,0,0,0,0,0,0,0,0,0,0,0,0,0,0,0,0,0,0],"id":22,"left_children":[1,3,5,7,9,11,13,15,17,-1,-1,19,21,23,25,27,29,31,33,35,37,39,41,43,45,47,49,-1,-1,-1,-1,-1,-1,-1,-1,-1,-1,-1,-1,-1,-1,-1,-1,-1,-1,-1,-1,-1,-1,-1,-1],"loss_changes":[1.3009187E4,1.9910059E2,2.181418E3,1.8999854E2,5.3710938E-2,4.2802747E2,4.0037646E2,1.3306494E2,1.6907898E2,0E0,0E0,2.4576141E2,1.588363E2,4.7117676E1,3.1382886E2,2.053917E0,9.537427E1,4.545337E1,1.5153784E2,1.2540516E2,3.583644E2,1.3919836E2,5.234169E1,5.400052E1,1.9486328E1,7.380823E1,1.8260516E2,0E0,0E0,0E0,0E0,0E0,0E0,0E0,0E0,0E0,0E0,0E0,0E0,0E0,0E0,0E0,0E0,0E0,0E0,0E0,0E0,0E0,0E0,0E0,0E0],"parents":[2147483647,0,0,1,1,2,2,3,3,4,4,5,5,6,6,7,7,8,8,11,11,12,12,13,13,14,14,15,15,16,16,17,17,18,18,19,19,20,20,21,21,22,22,23,23,24,24,25,25,26,26],"right_children":[2,4,6,8,10,12,14,16,18,-1,-1,20,22,24,26,28,30,32,34,36,38,40,42,44,46,48,50,-1,-1,-1,-1,-1,-1,-1,-1,-1,-1,-1,-1,-1,-1,-1,-1,-1,-1,-1,-1,-1,-1,-1,-1],"split_conditions":[1.5E0,8.365E0,4.5E0,3.997E2,8.43E0,2.5E0,2.6150002E1,2.961E2,7.12E0,7.034609E-2,7.415705E-2,4.2975E2,2.525E1,9.372197E1,7.05E0,2.5150002E1,3.3565E1,3.2449997E1,2.495E1,3.959794E1,3.3335E1,1.3423909E2,4.5302612E1,3.3305E1,8.455E0,1.3660885E1,4.044648E0,2.1899657E-2,7.828072E-3,6.8208404E-2,2.5320744E-2,3.4823246E-2,6.470199E-2,5.4047056E-2,1.5682574E-2,3.1768545E-4,-2.9684568E-2,3.7520703E-2,-1.1161221E-2,-3.9154E-2,-4.5813727E-3,-5.0722095E-3,-1.7390182E-2,-6.1870117E-2,-2.8441925E-2,-5.9721988E-2,-4.002018E-2,-5.5841427E-2,-1.4044483E-2,-1.3534114E-2,-3.796641E-2],"split_indices":[5,8,5,2,8,5,6,2,7,0,0,2,6,3,7,6,9,9,6,4,9,3,4,9,8,12,10,0,0,0,0,0,0,0,0,0,0,0,0,0,0,0,0,0,0,0,0,0,0,0,0],"split_type":[0,0,0,0,0,0,0,0,0,0,0,0,0,0,0,0,0,0,0,0,0,0,0,0,0,0,0,0,0,0,0,0,0,0,0,0,0,0,0,0,0,0,0,0,0,0,0,0,0,0,0],"sum_hessian":[9.22748E4,2.5072766E4,6.720203E4,1.7851947E4,7.2208184E3,3.4547805E4,3.2654229E4,9.975872E3,7.8760747E3,1.9260958E3,5.2947227E3,1.4462939E4,2.0084865E4,1.4230958E4,1.8423271E4,6.45847E2,9.330025E3,3.3335674E3,4.5425073E3,7.948156E3,6.514783E3,6.225752E3,1.3859112E4,2.0369471E3,1.2194011E4,6.089282E3,1.2333988E4,4.7979135E2,1.6605563E2,8.769201E3,5.608242E2,6.5372675E2,2.6798406E3,1.5903967E3,2.9521106E3,6.1503784E3,1.7977773E3,4.1364087E3,2.3783745E3,4.664291E3,1.5614609E3,6.9159893E3,6.943123E3,8.303147E2,1.2066324E3,1.1627355E4,5.666558E2,5.6245713E3,4.6471112E2,6.605496E3,5.728492E3],"tree_param":{"num_deleted":"0","num_feature":"14","num_nodes":"51","size_leaf_vector":"0"}},{"base_weights":[-5.2387494E-1,-2.601833E-1,-6.118135E-1,-1.7803788E-1,-5.000717E-1,-6.15372E-1,-5.8800066E-1,-3.598004E-1,-6.337486E-2,-4.3830356E-1,-5.156655E-1,-6.184449E-1,-4.3464777E-1,2.1407504E-1,-4.3278193E-1,1.9503462E-1,-2.0113006E-1,-4.898613E-1,-4.133086E-1,1.829822E-1,2.9336572E-1,-5.0122774E-1,-3.5384434E-1,-2.5839612E-1,3.5182497E-1,-3.731959E-1,-1.20078966E-1],"categories":[],"categories_nodes":[],"categories_segments":[],"categories_sizes":[],"default_left":[1,1,1,1,1,0,1,1,1,1,0,0,0,1,1,1,1,0,0,0,0,0,0,0,0,0,0],"id":23,"left_children":[1,3,5,7,9,-1,11,13,15,17,-1,-1,-1,19,21,23,25,-1,-1,-1,-1,-1,-1,-1,-1,-1,-1],"loss_changes":[1.7547207E3,3.7246436E2,3.2460938E0,2.937011E2,3.4700928E0,0E0,3.341626E1,2.288133E2,3.0827344E2,1.7362976E-1,0E0,0E0,0E0,9.8537254E-1,2.5129333E1,2.1409247E2,7.827054E1,0E0,0E0,0E0,0E0,0E0,0E0,0E0,0E0,0E0,0E0],"parents":[2147483647,0,0,1,1,2,2,3,3,4,4,6,6,7,7,8,8,9,9,13,13,14,14,15,15,16,16],"right_children":[2,4,6,8,10,-1,12,14,16,18,-1,-1,-1,20,22,24,26,-1,-1,-1,-1,-1,-1,-1,-1,-1,-1],"split_conditions":[1.5E0,8.365E0,8.425E0,1.0985468E2,8E0,-6.1537202E-2,2.745E1,2.961E2,4.38E1,8.953488E0,-5.156655E-2,-6.1844494E-2,-4.3464776E-2,2.5150002E1,2.5099998E1,2.495E1,4.8300003E1,-4.8986133E-2,-4.133086E-2,1.8298222E-2,2.9336572E-2,-5.0122775E-2,-3.5384435E-2,-2.5839612E-2,3.51825E-2,-3.731959E-2,-1.2007897E-2],"split_indices":[5,8,8,3,0,0,6,2,1,11,0,0,0,6,6,6,1,0,0,0,0,0,0,0,0,0,0],"split_type":[0,0,0,0,0,0,0,0,0,0,0,0,0,0,0,0,0,0,0,0,0,0,0,0,0,0,0],"sum_hessian":[7.5715E4,1.8939252E4,5.6775746E4,1.4112569E4,4.826682E3,4.933614E4,7.4396035E3,5.454809E3,8.657761E3,9.91702E2,3.8349802E3,6.1993325E3,1.240271E3,6.136739E2,4.8411353E3,3.0078257E3,5.6499346E3,3.0466183E2,6.870402E2,4.5224948E2,1.6142441E2,2.5832297E3,2.2579058E3,7.710262E2,2.2367996E3,1.8040726E3,3.845862E3],"tree_param":{"num_deleted":"0","num_feature":"14","num_nodes":"27","size_leaf_vector":"0"}},{"base_weights":[3.7524465E-1,-6.0692847E-1,5.444647E-1,4.2228317E-1,6.5582067E-1,3.2694322E-1,4.8345396E-1,7.247547E-1,5.9836495E-1,4.3434852E-1,2.2190559E-1,5.490975E-1,4.1203356E-1,6.371193E-1,7.385593E-1,6.876221E-1,5.228506E-1,4.7495893E-1,2.0544416E-1,-5.089645E-1,2.6714742E-1,4.461516E-1,6.005464E-1,3.1455636E-1,4.910454E-1,4.426455E-1,7.048086E-1,7.43757E-1,6.228278E-1,7.0259666E-1,4.834412E-1,6.1045426E-1,3.9697692E-1],"categories":[],"categories_nodes":[],"categories_segments":[],"categories_sizes":[],"default_left":[1,0,1,1,1,1,1,1,1,1,1,1,1,1,1,1,1,0,0,0,0,0,0,0,0,0,0,0,0,0,0,0,0],"id":24,"left_children":[1,-1,3,5,7,9,11,13,15,17,19,21,23,25,27,29,31,-1,-1,-1,-1,-1,-1,-1,-1,-1,-1,-1,-1,-1,-1,-1,-1],"loss_changes":[1.7010125E4,0E0,1.1864648E3,2.418501E2,1.7912305E2,1.829375E2,1.1767969E2,2.325293E1,1.6640918E2,7.400452E1,2.723118E2,6.860425E1,9.2648926E1,3.5934814E1,8.944336E0,3.3368164E1,1.4773071E2,0E0,0E0,0E0,0E0,0E0,0E0,0E0,0E0,0E0,0E0,0E0,0E0,0E0,0E0,0E0,0E0],"parents":[2147483647,0,0,2,2,3,3,4,4,5,5,6,6,7,7,8,8,9,9,10,10,11,11,12,12,13,13,14,14,15,15,16,16],"right_children":[2,-1,4,6,8,10,12,14,16,18,20,22,24,26,28,30,32,-1,-1,-1,-1,-1,-1,-1,-1,-1,-1,-1,-1,-1,-1,-1,-1],"split_conditions":[1.5E0,-6.0692847E-2,4.5E0,2.5E0,2.6150002E1,1.0546684E2,2.575E1,9.372197E1,7.175E0,2.545E1,2.5E0,4.5930233E0,4.5302612E1,1.5E0,8.455E0,1.3624004E1,1.0028325E1,4.7495894E-2,2.0544415E-2,-5.0896447E-2,2.6714742E-2,4.461516E-2,6.005464E-2,3.1455636E-2,4.9104538E-2,4.426455E-2,7.048086E-2,7.4375704E-2,6.2282782E-2,7.025967E-2,4.834412E-2,6.1045427E-2,3.969769E-2],"split_indices":[5,0,5,5,6,3,6,3,7,6,0,11,4,0,8,12,11,0,0,0,0,0,0,0,0,0,0,0,0,0,0,0,0],"split_type":[0,0,0,0,0,0,0,0,0,0,0,0,0,0,0,0,0,0,0,0,0,0,0,0,0,0,0,0,0,0,0,0,0],"sum_hessian":[1.0234259E5,1.5040025E4,8.730256E4,4.163441E4,4.5668152E4,1.6281292E4,2.535312E4,2.0747176E4,2.4920977E4,8.043662E3,8.23763E3,1.3200063E4,1.2153057E4,2.8396885E3,1.7907488E4,1.1411442E4,1.3509535E4,6.827022E3,1.2166399E3,4.7830948E2,7.759321E3,4.4083545E3,8.791709E3,5.4486616E3,6.704395E3,7.3895544E2,2.100733E3,1.712434E4,7.831487E2,1.0624876E4,7.8656586E2,7.9587363E3,5.550799E3],"tree_param":{"num_deleted":"0","num_feature":"14","num_nodes":"33","size_leaf_vector":"0"}},{"base_weights":[-1.8477853E-2,5.527751E-1,-2.3476425E-1,4.9895188E-1,6.8882143E-1,-6.545273E-2,-4.2018992E-1,5.850144E-1,3.920502E-1,6.550818E-1,6.974203E-1,5.6286663E-2,-1.5421045E-1,-5.496099E-1,-3.2284987E-1,1.854708E-1,6.134483E-1,5.507246E-1,2.762697E-1,-6.979326E-2,1.6978656E-1,-2.791801E-1,-9.921449E-2,-4.010281E-1,-5.750157E-1,-5.131568E-1,-2.3158534E-1,2.076853E-1,1.16512164E-1,6.372175E-1,2.4943057E-1,3.248602E-1,6.0895276E-1,2.18713E-1,7.556195E-1,-1.2378516E-1,2.10678E-1,8.958089E-1,1.2224891E-1,-1.428437E-1,-4.6190336E-1,-4.5151863E-2,-1.5429941E-1,-1.1879525E-1,-5.123766E-1,-5.8484864E-1,-3.7779507E-1,-5.425317E-1,-1.682534E-1,-3.8218263E-1,-1.3942377E-1],"categories":[],"categories_nodes":[],"categories_segments":[],"categories_sizes":[],"default_left":[1,1,1,1,1,1,1,1,1,0,0,1,1,1,1,1,1,1,1,1,1,1,1,1,1,1,1,0,0,0,0,0,0,0,0,0,0,0,0,0,0,0,0,0,0,0,0,0,0,0,0],"id":25,"left_children":[1,3,5,7,9,11,13,15,17,-1,-1,19,21,23,25,27,29,31,33,35,37,39,41,43,45,47,49,-1,-1,-1,-1,-1,-1,-1,-1,-1,-1,-1,-1,-1,-1,-1,-1,-1,-1,-1,-1,-1,-1,-1,-1],"loss_changes":[1.1067338E4,1.786001E2,2.0394324E3,1.6104248E2,2.1166992E-1,3.6714697E2,3.896045E2,1.09997314E2,1.4367029E2,0E0,0E0,2.0501852E2,1.3464801E2,4.9019775E1,3.0664648E2,6.509838E-1,7.778955E1,4.2490906E1,1.2460733E2,1.0261189E2,2.591012E2,1.4877298E2,4.0451355E1,6.065033E1,2.0836182E1,5.7295654E1,1.6558655E2,0E0,0E0,0E0,0E0,0E0,0E0,0E0,0E0,0E0,0E0,0E0,0E0,0E0,0E0,0E0,0E0,0E0,0E0,0E0,0E0,0E0,0E0,0E0,0E0],"parents":[2147483647,0,0,1,1,2,2,3,3,4,4,5,5,6,6,7,7,8,8,11,11,12,12,13,13,14,14,15,15,16,16,17,17,18,18,19,19,20,20,21,21,22,22,23,23,24,24,25,25,26,26],"right_children":[2,4,6,8,10,12,14,16,18,-1,-1,20,22,24,26,28,30,32,34,36,38,40,42,44,46,48,50,-1,-1,-1,-1,-1,-1,-1,-1,-1,-1,-1,-1,-1,-1,-1,-1,-1,-1,-1,-1,-1,-1,-1,-1],"split_conditions":[1.5E0,8.365E0,4.5E0,3.997E2,8E0,2.5E0,2.6150002E1,2.961E2,7.12E0,6.550818E-2,6.974203E-2,1.0546684E2,2.525E1,9.372197E1,7.05E0,2.5150002E1,3.3565E1,3.2449997E1,2.6559793E1,2.545E1,2.5E0,1.5845751E1,4.5302612E1,1.5E0,8.455E0,1.3660885E1,4.545E1,2.076853E-2,1.1651217E-2,6.372175E-2,2.4943057E-2,3.2486018E-2,6.0895275E-2,2.18713E-2,7.5561956E-2,-1.2378517E-2,2.10678E-2,8.9580886E-2,1.2224891E-2,-1.428437E-2,-4.6190336E-2,-4.5151864E-3,-1.5429941E-2,-1.1879525E-2,-5.123766E-2,-5.8484863E-2,-3.7779506E-2,-5.4253172E-2,-1.682534E-2,-3.8218264E-2,-1.3942378E-2],"split_indices":[5,8,5,2,0,5,6,2,7,0,0,3,6,3,7,6,9,9,12,6,0,11,4,0,8,12,1,0,0,0,0,0,0,0,0,0,0,0,0,0,0,0,0,0,0,0,0,0,0,0,0],"split_type":[0,0,0,0,0,0,0,0,0,0,0,0,0,0,0,0,0,0,0,0,0,0,0,0,0,0,0,0,0,0,0,0,0,0,0,0,0,0,0,0,0,0,0,0,0,0,0,0,0,0,0],"sum_hessian":[8.957526E4,2.4598865E4,6.4976395E4,1.7634322E4,6.9645425E3,3.396752E4,3.1008875E4,9.76171E3,7.872613E3,1.4537794E3,5.5107627E3,1.4318067E4,1.9649451E4,1.3304608E4,1.7704268E4,6.513841E2,9.110326E3,3.3158818E3,4.556731E3,6.7791304E3,7.538937E3,5.997903E3,1.3651549E4,1.9509496E3,1.1353659E4,5.7333574E3,1.1970909E4,4.801834E2,1.7120065E2,8.54863E3,5.616959E2,6.84498E2,2.631384E3,4.0714092E3,4.8532166E2,5.6882437E3,1.0908866E3,4.609016E2,7.0780356E3,3.4391118E3,2.5587908E3,6.8997856E3,6.751763E3,5.5507074E2,1.3958789E3,1.0807774E4,5.458847E2,5.2801787E3,4.5317874E2,4.5393516E3,7.431558E3],"tree_param":{"num_deleted":"0","num_feature":"14","num_nodes":"51","size_leaf_vector":"0"}},{"base_weights":[-5.0866354E-1,-2.4066958E-1,-6.0058093E-1,-1.5804921E-1,-4.8726594E-1,-6.0408247E-1,-5.772256E-1,-2.9719883E-1,-8.9590065E-3,-4.2574298E-1,-5.033406E-1,-6.077549E-1,-4.2357334E-1,-7.283276E-2,-4.287207E-1,-2.3381808E-1,1.2425308E-1,5.650223E-2,-3.5567766E-1,-3.5851982E-1,-4.648971E-1,5.008464E-2,-3.2207197E-1,2.7469003E-1,-1.1252719E-1],"categories":[],"categories_nodes":[],"categories_segments":[],"categories_sizes":[],"default_left":[1,1,1,1,1,0,1,1,1,0,0,0,0,1,1,1,1,0,0,0,0,0,0,0,0],"id":26,"left_children":[1,3,5,7,9,-1,11,13,15,-1,-1,-1,-1,17,19,21,23,-1,-1,-1,-1,-1,-1,-1,-1],"loss_changes":[1.7670059E3,3.7281958E2,2.8417969E0,2.846907E2,3.4034424E0,0E0,3.1674072E1,2.0904694E2,1.9892644E2,0E0,0E0,0E0,0E0,9.648205E1,1.0373474E1,6.2227264E1,1.485657E2,0E0,0E0,0E0,0E0,0E0,0E0,0E0,0E0],"parents":[2147483647,0,0,1,1,2,2,3,3,4,4,6,6,7,7,8,8,13,13,14,14,15,15,16,16],"right_children":[2,4,6,8,10,-1,12,14,16,-1,-1,-1,-1,18,20,22,24,-1,-1,-1,-1,-1,-1,-1,-1],"split_conditions":[1.5E0,8.365E0,8.425E0,3.997E2,8E0,-6.0408246E-2,2.745E1,4.13E1,7.12E0,-4.2574298E-2,-5.0334062E-2,-6.077549E-2,-4.2357337E-2,2.675E1,7.1949997E0,3.2449997E1,4.6445E2,5.650223E-3,-3.5567768E-2,-3.585198E-2,-4.648971E-2,5.008464E-3,-3.22072E-2,2.7469004E-2,-1.1252719E-2],"split_indices":[5,8,8,2,0,0,6,1,7,0,0,0,0,6,7,9,2,0,0,0,0,0,0,0,0],"split_type":[0,0,0,0,0,0,0,0,0,0,0,0,0,0,0,0,0,0,0,0,0,0,0,0,0],"sum_hessian":[7.177148E4,1.8333346E4,5.3438133E4,1.3736668E4,4.5966777E3,4.6412137E4,7.025993E3,7.10122E3,6.635448E3,9.7080206E2,3.6258757E3,5.8534956E3,1.1724973E3,2.6277095E3,4.4735107E3,2.4710767E3,4.1643716E3,1.8013021E3,8.264072E2,1.5344458E3,2.939065E3,5.83411E2,1.8876656E3,2.548965E3,1.6154067E3],"tree_param":{"num_deleted":"0","num_feature":"14","num_nodes":"25","size_leaf_vector":"0"}},{"base_weights":[3.5166505E-1,-5.9719795E-1,5.0876355E-1,3.8941506E-1,6.2011415E-1,2.9792073E-1,4.4829416E-1,6.919345E-1,5.6112427E-1,3.8623485E-1,1.789265E-1,5.125785E-1,3.7899595E-1,6.025241E-1,7.062603E-1,6.2287956E-1,4.5039925E-1,3.2399824E-1,5.976222E-1,4.9621916E-1,5.8783278E-2,5.397835E-1,3.0679664E-1,2.8203657E-1,4.587615E-1,4.065248E-1,6.7108095E-1,7.1163666E-1,5.9186727E-1,4.1777354E-1,6.605896E-1,5.473269E-1,2.9267654E-1],"categories":[],"categories_nodes":[],"categories_segments":[],"categories_sizes":[],"default_left":[1,0,1,1,1,1,1,1,1,1,1,1,1,1,1,1,1,0,0,0,0,0,0,0,0,0,0,0,0,0,0,0,0],"id":27,"left_children":[1,-1,3,5,7,9,11,13,15,17,19,21,23,25,27,29,31,-1,-1,-1,-1,-1,-1,-1,-1,-1,-1,-1,-1,-1,-1,-1,-1],"loss_changes":[1.4875462E4,0E0,1.1365566E3,2.2177686E2,1.8598438E2,1.6953625E2,1.109043E2,2.3831055E1,1.6499902E2,1.2109192E2,2.626376E2,7.19397E1,9.278259E1,3.5908203E1,8.845703E0,1.1937549E2,1.3230713E2,0E0,0E0,0E0,0E0,0E0,0E0,0E0,0E0,0E0,0E0,0E0,0E0,0E0,0E0,0E0,0E0],"parents":[2147483647,0,0,2,2,3,3,4,4,5,5,6,6,7,7,8,8,9,9,10,10,11,11,12,12,13,13,14,14,15,15,16,16],"right_children":[2,-1,4,6,8,10,12,14,16,18,20,22,24,26,28,30,32,-1,-1,-1,-1,-1,-1,-1,-1,-1,-1,-1,-1,-1,-1,-1,-1],"split_conditions":[1.5E0,-5.9719797E-2,4.5E0,2.5E0,2.6150002E1,4.2975E2,2.575E1,9.372197E1,8.315001E0,3.959794E1,1.04869354E2,5.24E1,4.5302612E1,1.5E0,8.455E0,7.745E0,1.362457E2,3.2399826E-2,5.976222E-2,4.9621917E-2,5.878328E-3,5.397835E-2,3.0679664E-2,2.8203657E-2,4.5876153E-2,4.065248E-2,6.7108095E-2,7.116367E-2,5.9186727E-2,4.1777354E-2,6.6058956E-2,5.473269E-2,2.9267654E-2],"split_indices":[5,0,5,5,6,2,6,3,8,4,3,1,4,0,8,8,3,0,0,0,0,0,0,0,0,0,0,0,0,0,0,0,0],"split_type":[0,0,0,0,0,0,0,0,0,0,0,0,0,0,0,0,0,0,0,0,0,0,0,0,0,0,0,0,0,0,0,0,0],"sum_hessian":[9.978936E4,1.4173476E4,8.561588E4,4.1330375E4,4.4285508E4,1.6192038E4,2.5138336E4,1.99584E4,2.432711E4,9.288057E3,6.9039814E3,1.3030132E4,1.2108204E4,2.771813E3,1.7186588E4,1.5608202E4,8.718907E3,7.1810713E3,2.1069854E3,1.8930558E3,5.010926E3,1.1502928E4,1.5272048E3,5.472794E3,6.63541E3,7.2386084E2,2.0479521E3,1.6401764E4,7.8482306E2,2.4299893E3,1.3178213E4,5.394769E3,3.324138E3],"tree_param":{"num_deleted":"0","num_feature":"14","num_nodes":"33","size_leaf_vector":"0"}},{"base_weights":[-1.6126573E-2,5.156028E-1,-2.1876073E-1,4.6188828E-1,6.54338E-1,-5.9923038E-2,-4.004936E-1,5.4757154E-1,3.577601E-1,6.1921686E-1,6.6497254E-1,4.893278E-2,-1.4087313E-1,-5.376458E-1,-3.0055156E-1,3.9491308E-1,6.223119E-1,-1.797366E-1,3.9061946E-1,-8.2291454E-2,1.5178351E-1,-2.2063686E-1,-6.0120415E-2,-3.9098936E-1,-5.632672E-1,-4.9676883E-1,-2.0944425E-1,5.601208E-1,2.9506782E-1,5.6345576E-1,6.512561E-1,-1.9549446E-1,-1.1922287E-1,3.1676462E-1,5.735949E-1,1.5461825E-4,-2.9931948E-1,-6.653232E-2,2.8714794E-1,-1.355401E-1,-3.4808296E-1,1.2399513E-2,-1.721243E-1,-5.959354E-1,-2.5631747E-1,-5.7312006E-1,-3.7247005E-1,-5.2907944E-1,-1.392136E-1,-3.6860055E-1,-1.1155178E-1],"categories":[],"categories_nodes":[],"categories_segments":[],"categories_sizes":[],"default_left":[1,1,1,1,1,1,1,1,1,0,0,1,1,1,1,1,1,1,1,1,1,1,1,1,1,1,1,0,0,0,0,0,0,0,0,0,0,0,0,0,0,0,0,0,0,0,0,0,0,0,0],"id":28,"left_children":[1,3,5,7,9,11,13,15,17,-1,-1,19,21,23,25,27,29,31,33,35,37,39,41,43,45,47,49,-1,-1,-1,-1,-1,-1,-1,-1,-1,-1,-1,-1,-1,-1,-1,-1,-1,-1,-1,-1,-1,-1,-1,-1],"loss_changes":[9.3917705E3,1.7781201E2,1.8214529E3,1.5366772E2,8.088379E-1,2.9691998E2,4.02458E2,1.072334E2,1.3872687E2,0E0,0E0,1.9391063E2,1.24173065E2,4.5425537E1,3.0368774E2,5.0651398E1,9.282959E0,9.1591835E-2,9.878259E1,1.1314497E2,2.3830432E2,1.04828705E2,7.82189E1,5.0151733E1,1.8672607E1,6.1606323E1,1.8079065E2,0E0,0E0,0E0,0E0,0E0,0E0,0E0,0E0,0E0,0E0,0E0,0E0,0E0,0E0,0E0,0E0,0E0,0E0,0E0,0E0,0E0,0E0,0E0,0E0],"parents":[2147483647,0,0,1,1,2,2,3,3,4,4,5,5,6,6,7,7,8,8,11,11,12,12,13,13,14,14,15,15,16,16,17,17,18,18,19,19,20,20,21,21,22,22,23,23,24,24,25,25,26,26],"right_children":[2,4,6,8,10,12,14,16,18,-1,-1,20,22,24,26,28,30,32,34,36,38,40,42,44,46,48,50,-1,-1,-1,-1,-1,-1,-1,-1,-1,-1,-1,-1,-1,-1,-1,-1,-1,-1,-1,-1,-1,-1,-1,-1],"split_conditions":[1.5E0,8.365E0,4.5E0,3.997E2,8.395E0,2.5E0,2.6150002E1,4.13E1,4.24E1,6.1921686E-2,6.649726E-2,4.037E2,2.575E1,9.372197E1,7.05E0,3.94E1,7.1949997E0,5.0253807E1,2.74E1,3.959794E1,1.0546684E2,1.5845751E1,3.5E0,3.3305E1,8.455E0,1.3660885E1,4.545E1,5.6012083E-2,2.9506782E-2,5.634558E-2,6.512561E-2,-1.9549446E-2,-1.1922288E-2,3.1676464E-2,5.7359494E-2,1.5461825E-5,-2.9931948E-2,-6.653232E-3,2.8714795E-2,-1.355401E-2,-3.4808297E-2,1.2399514E-3,-1.721243E-2,-5.959354E-2,-2.5631746E-2,-5.7312008E-2,-3.7247006E-2,-5.2907944E-2,-1.39213605E-2,-3.6860056E-2,-1.1155178E-2],"split_indices":[5,8,5,2,8,5,6,1,1,0,0,2,6,3,7,1,7,11,6,4,3,11,5,9,8,12,1,0,0,0,0,0,0,0,0,0,0,0,0,0,0,0,0,0,0,0,0,0,0,0,0],"split_type":[0,0,0,0,0,0,0,0,0,0,0,0,0,0,0,0,0,0,0,0,0,0,0,0,0,0,0,0,0,0,0,0,0,0,0,0,0,0,0,0,0,0,0,0,0,0,0,0,0,0,0],"sum_hessian":[8.716611E4,2.4050102E4,6.3116008E4,1.7345807E4,6.7042954E3,3.3683168E4,2.9432844E4,9.508088E3,7.837718E3,1.5938269E3,5.1104683E3,1.4360393E4,1.9322773E4,1.2400723E4,1.703212E4,3.1315356E3,6.3765522E3,4.4953595E2,7.388182E3,6.305661E3,8.054732E3,9.713812E3,9.608962E3,1.8524738E3,1.0548249E4,5.3957964E3,1.1636323E4,1.1741376E3,1.9573981E3,2.120228E3,4.256324E3,3.4178024E2,1.07755714E2,5.269455E3,2.1187268E3,4.5670796E3,1.7385815E3,3.0801636E3,4.974568E3,5.8305903E3,3.8832214E3,5.8276523E3,3.7813093E3,7.302761E2,1.1221976E3,1.0023389E4,5.2486E2,4.9456084E3,4.5018796E2,4.4265444E3,7.209779E3],"tree_param":{"num_deleted":"0","num_feature":"14","num_nodes":"51","size_leaf_vector":"0"}},{"base_weights":[-4.946422E-1,-2.2227219E-1,-5.907022E-1,-1.4399454E-1,-4.6711442E-1,-5.966403E-1,-5.770217E-1,-3.181864E-1,-4.056033E-2,-4.0739143E-1,-4.8279434E-1,-5.447788E-1,-5.963973E-1,2.1644855E-1,-3.951275E-1,1.7744404E-1,-1.6175951E-1,-4.561654E-1,-3.8300982E-1,-4.662545E-1,-5.844456E-1,1.9406039E-1,2.7020645E-1,-4.636477E-1,-3.195598E-1,-2.4992819E-1,3.1930545E-1,-8.2392514E-2,-3.333829E-1,-3.419037E-1,-4.1994667E-1,-5.884655E-1,-4.1155514E-1,-5.9071743E-1,-3.5182798E-1],"categories":[],"categories_nodes":[],"categories_segments":[],"categories_sizes":[],"default_left":[1,1,1,1,1,0,1,1,1,1,0,1,0,1,1,1,1,0,1,1,1,0,0,0,0,0,0,0,0,0,0,0,0,0,0],"id":29,"left_children":[1,3,5,7,9,-1,11,13,15,17,-1,19,-1,21,23,25,27,-1,29,31,33,-1,-1,-1,-1,-1,-1,-1,-1,-1,-1,-1,-1,-1,-1],"loss_changes":[1.7816348E3,3.3985846E2,2.5742188E0,2.4229007E2,2.9406128E0,0E0,8.10791E0,2.0651904E2,2.2341428E2,7.305908E-2,0E0,1.6691528E1,0E0,2.4131012E-1,2.1774963E1,1.8315933E2,7.36228E1,0E0,5.0048828E-2,1.182312E1,4.4375E0,0E0,0E0,0E0,0E0,0E0,0E0,0E0,0E0,0E0,0E0,0E0,0E0,0E0,0E0],"parents":[2147483647,0,0,1,1,2,2,3,3,4,4,6,6,7,7,8,8,9,9,11,11,13,13,14,14,15,15,16,16,18,18,19,19,20,20],"right_children":[2,4,6,8,10,-1,12,14,16,18,-1,20,-1,22,24,26,28,-1,30,32,34,-1,-1,-1,-1,-1,-1,-1,-1,-1,-1,-1,-1,-1,-1],"split_conditions":[1.5E0,8.365E0,1.35E1,1.0985468E2,8E0,-5.966403E-2,3.5E0,2.961E2,4.38E1,8.953488E0,-4.8279434E-2,1.1617501E2,-5.963973E-2,2.5150002E1,2.5099998E1,2.495E1,2.74E1,-4.561654E-2,2.6057137E1,3.3190002E2,3.595156E1,1.940604E-2,2.7020646E-2,-4.636477E-2,-3.1955983E-2,-2.499282E-2,3.1930547E-2,-8.239252E-3,-3.333829E-2,-3.4190368E-2,-4.199467E-2,-5.8846552E-2,-4.1155513E-2,-5.9071746E-2,-3.51828E-2],"split_indices":[5,8,0,3,0,0,5,2,1,11,0,3,0,6,6,6,6,0,11,2,11,0,0,0,0,0,0,0,0,0,0,0,0,0,0],"split_type":[0,0,0,0,0,0,0,0,0,0,0,0,0,0,0,0,0,0,0,0,0,0,0,0,0,0,0,0,0,0,0,0,0,0,0],"sum_hessian":[6.813034E4,1.7767059E4,5.0363285E4,1.3467186E4,4.2998735E3,3.503869E4,1.5324594E4,5.013048E3,8.454137E3,9.130251E2,3.3868486E3,5.7825674E3,9.542026E3,6.2881775E2,4.3842305E3,3.017593E3,5.436544E3,2.8472543E2,6.282996E2,1.9534604E3,3.829107E3,4.6032248E2,1.6849527E2,2.2897004E3,2.09453E3,7.5008203E2,2.267511E3,3.7224219E3,1.7141222E3,3.1503476E2,3.132649E2,5.953256E2,1.3581348E3,3.7228923E3,1.06214676E2],"tree_param":{"num_deleted":"0","num_feature":"14","num_nodes":"35","size_leaf_vector":"0"}},{"base_weights":[3.2981676E-1,-5.885506E-1,4.765994E-1,3.6166334E-1,5.8722365E-1,2.7852145E-1,4.1624552E-1,6.623778E-1,5.273694E-1,3.7489328E-1,1.9666286E-1,4.80308E-1,3.4764254E-1,5.6929857E-1,6.7744625E-1,6.4244556E-1,4.6675757E-1,3.0425498E-1,5.566389E-1,-4.7433954E-1,2.3372895E-1,3.463525E-1,5.202492E-1,2.757465E-1,4.540568E-1,3.769166E-1,6.401556E-1,6.837919E-1,5.4497766E-1,6.6172254E-1,3.9903313E-1,5.7716936E-1,3.9630193E-1],"categories":[],"categories_nodes":[],"categories_segments":[],"categories_sizes":[],"default_left":[1,0,1,1,1,1,1,1,1,1,1,1,1,1,1,1,1,0,0,0,0,0,0,0,0,0,0,0,0,0,0,0,0],"id":30,"left_children":[1,-1,3,5,7,9,11,13,15,17,19,21,23,25,27,29,31,-1,-1,-1,-1,-1,-1,-1,-1,-1,-1,-1,-1,-1,-1,-1,-1],"loss_changes":[1.3019456E4,0E0,1.0576445E3,1.8456055E2,1.8930957E2,1.2714661E2,1.07339355E2,2.4733398E1,1.6340771E2,9.439929E1,2.1791226E2,6.709912E1,9.0299194E1,3.465674E1,1.1986328E1,3.6888428E1,1.1927295E2,0E0,0E0,0E0,0E0,0E0,0E0,0E0,0E0,0E0,0E0,0E0,0E0,0E0,0E0,0E0,0E0],"parents":[2147483647,0,0,2,2,3,3,4,4,5,5,6,6,7,7,8,8,9,9,10,10,11,11,12,12,13,13,14,14,15,15,16,16],"right_children":[2,-1,4,6,8,10,12,14,16,18,20,22,24,26,28,30,32,-1,-1,-1,-1,-1,-1,-1,-1,-1,-1,-1,-1,-1,-1,-1,-1],"split_conditions":[1.5E0,-5.8855064E-2,4.5E0,2.5E0,2.6150002E1,4.037E2,2.575E1,9.372197E1,7.05E0,3.959794E1,3E0,3.5E0,3.5E0,1.5E0,8.455E0,1.3660885E1,4.545E1,3.0425498E-2,5.566389E-2,-4.7433954E-2,2.3372894E-2,3.463525E-2,5.202492E-2,2.757465E-2,4.5405682E-2,3.769166E-2,6.401556E-2,6.8379186E-2,5.4497767E-2,6.617226E-2,3.9903313E-2,5.7716936E-2,3.9630193E-2],"split_indices":[5,0,5,5,6,2,6,3,7,4,0,0,5,0,8,12,1,0,0,0,0,0,0,0,0,0,0,0,0,0,0,0,0],"split_type":[0,0,0,0,0,0,0,0,0,0,0,0,0,0,0,0,0,0,0,0,0,0,0,0,0,0,0,0,0,0,0,0,0],"sum_hessian":[9.658099E4,1.3307956E4,8.327304E4,4.0847125E4,4.2425914E4,1.6198025E4,2.4649102E4,1.8797115E4,2.3628797E4,7.4322583E3,8.765767E3,1.2735719E4,1.1913383E4,2.6336946E3,1.616342E4,8.142858E3,1.5485939E4,5.357974E3,2.0742844E3,4.5684186E2,8.308925E3,2.9331555E3,9.8025625E3,7.11757E3,4.795813E3,7.144212E2,1.9192734E3,1.5413367E4,7.5005237E2,7.53991E3,6.02948E2,6.0241094E3,9.46183E3],"tree_param":{"num_deleted":"0","num_feature":"14","num_nodes":"33","size_leaf_vector":"0"}},{"base_weights":[-1.0799612E-2,4.806395E-1,-1.9941723E-1,4.272605E-1,6.226858E-1,-4.7657166E-2,-3.8012898E-1,5.1257825E-1,3.2386288E-1,5.833185E-1,6.3284326E-1,5.7171978E-2,-1.2750313E-1,-5.2273154E-1,-2.78557E-1,1.111809E-1,5.435692E-1,4.76833E-1,2.1918416E-1,-5.9039008E-2,1.483034E-1,-2.0717531E-1,-4.9044903E-2,-3.6272115E-1,-5.5160344E-1,-4.370417E-1,-1.6618921E-1,1.3930784E-1,1.3785262E-2,5.6631947E-1,2.201643E-1,2.5037202E-1,5.366564E-1,4.453232E-1,1.033576E-1,1.9440299E-2,-2.6610833E-1,7.740824E-1,1.08117856E-1,-2.5295813E-2,-2.6125845E-1,2.182891E-2,-1.5909235E-1,-9.303846E-2,-4.8067933E-1,-5.6367767E-1,-3.199852E-1,-2.4336976E-1,-4.8093197E-1,-3.576718E-2,-3.2276055E-1],"categories":[],"categories_nodes":[],"categories_segments":[],"categories_sizes":[],"default_left":[1,1,1,1,1,1,1,1,1,0,0,1,1,1,1,1,1,1,1,1,1,1,1,1,1,1,1,0,0,0,0,0,0,0,0,0,0,0,0,0,0,0,0,0,0,0,0,0,0,0,0],"id":31,"left_children":[1,3,5,7,9,11,13,15,17,-1,-1,19,21,23,25,27,29,31,33,35,37,39,41,43,45,47,49,-1,-1,-1,-1,-1,-1,-1,-1,-1,-1,-1,-1,-1,-1,-1,-1,-1,-1,-1,-1,-1,-1,-1,-1],"loss_changes":[7.844217E3,1.7664404E2,1.6767812E3,1.4956616E2,9.753418E-1,2.7834912E2,4.033523E2,1.15528564E2,1.2288867E2,0E0,0E0,1.522757E2,1.1773422E2,5.250293E1,2.897423E2,1.6895466E0,6.2895508E1,4.1531372E1,1.19679184E2,1.0281796E2,2.0169073E2,9.177301E1,7.4381874E1,5.60773E1,2.6411621E1,5.663147E1,1.9459366E2,0E0,0E0,0E0,0E0,0E0,0E0,0E0,0E0,0E0,0E0,0E0,0E0,0E0,0E0,0E0,0E0,0E0,0E0,0E0,0E0,0E0,0E0,0E0,0E0],"parents":[2147483647,0,0,1,1,2,2,3,3,4,4,5,5,6,6,7,7,8,8,11,11,12,12,13,13,14,14,15,15,16,16,17,17,18,18,19,19,20,20,21,21,22,22,23,23,24,24,25,25,26,26],"right_children":[2,4,6,8,10,12,14,16,18,-1,-1,20,22,24,26,28,30,32,34,36,38,40,42,44,46,48,50,-1,-1,-1,-1,-1,-1,-1,-1,-1,-1,-1,-1,-1,-1,-1,-1,-1,-1,-1,-1,-1,-1,-1,-1],"split_conditions":[1.5E0,8.365E0,4.5E0,3.997E2,8E0,2.5E0,2.6150002E1,2.961E2,7.12E0,5.8331847E-2,6.328433E-2,4.037E2,2.575E1,9.372197E1,7.175E0,2.5150002E1,3.3565E1,3.2449997E1,2.495E1,3.959794E1,3E0,3.5E0,3.5E0,1.5E0,8.455E0,3.2394997E1,2.4418604E0,1.3930785E-2,1.3785262E-3,5.663195E-2,2.201643E-2,2.5037203E-2,5.3665638E-2,4.453232E-2,1.033576E-2,1.9440299E-3,-2.6610835E-2,7.740825E-2,1.0811786E-2,-2.5295813E-3,-2.6125846E-2,2.1828911E-3,-1.5909236E-2,-9.303846E-3,-4.8067935E-2,-5.6367766E-2,-3.1998523E-2,-2.4336977E-2,-4.8093196E-2,-3.576718E-3,-3.2276057E-2],"split_indices":[5,8,5,2,0,5,6,2,7,0,0,2,6,3,7,6,9,9,6,4,0,0,5,0,8,9,10,0,0,0,0,0,0,0,0,0,0,0,0,0,0,0,0,0,0,0,0,0,0,0,0],"split_type":[0,0,0,0,0,0,0,0,0,0,0,0,0,0,0,0,0,0,0,0,0,0,0,0,0,0,0,0,0,0,0,0,0,0,0,0,0,0,0,0,0,0,0,0,0,0,0,0,0,0,0],"sum_hessian":[8.462579E4,2.3469549E4,6.1156246E4,1.7067043E4,6.402506E3,3.3244562E4,2.7911682E4,9.343605E3,7.7234365E3,1.3453153E3,5.0571904E3,1.4368298E4,1.8876266E4,1.1604911E4,1.63067705E4,6.723343E2,8.671271E3,3.132587E3,4.5908496E3,6.310506E3,8.0577915E3,9.358539E3,9.517727E3,1.7812538E3,9.823657E3,6.7602515E3,9.546519E3,5.1337787E2,1.5895639E2,8.0977812E3,5.734901E2,6.5917737E2,2.4734097E3,1.5510707E3,3.0397788E3,4.573301E3,1.7372051E3,4.8361865E2,7.574173E3,2.1495713E3,7.208968E3,5.7842275E3,3.7334993E3,5.451553E2,1.2360986E3,9.331459E3,4.921979E2,1.2543931E3,5.5058584E3,5.212328E3,4.3341904E3],"tree_param":{"num_deleted":"0","num_feature":"14","num_nodes":"51","size_leaf_vector":"0"}},{"base_weights":[-4.813905E-1,-2.0812346E-1,-5.809607E-1,-1.3248348E-1,-4.516669E-1,-5.877508E-1,-5.6539524E-1,-3.01942E-1,-3.4049876E-2,-3.9980683E-1,-4.6564662E-1,-5.2871716E-1,-5.8774346E-1,1.9774246E-1,-3.7665036E-1,1.6763535E-1,-1.485844E-1,-4.8516524E-1,-3.8370696E-1,-4.4787857E-1,-5.703548E-1,2.3552985E-1,1.5245493E-1,-4.445721E-1,-3.0307555E-1,-2.4698445E-1,3.0522016E-1,-7.696674E-2,-3.109947E-1,-5.7944536E-1,-3.908711E-1,-4.6648663E-1,-5.953024E-1],"categories":[],"categories_nodes":[],"categories_segments":[],"categories_sizes":[],"default_left":[1,1,1,1,1,0,1,1,1,1,0,1,0,1,1,1,1,0,0,1,1,0,0,0,0,0,0,0,0,0,0,0,0],"id":32,"left_children":[1,3,5,7,9,-1,11,13,15,17,-1,19,-1,21,23,25,27,-1,-1,29,31,-1,-1,-1,-1,-1,-1,-1,-1,-1,-1,-1,-1],"loss_changes":[1.7532314E3,3.1659985E2,3.5097656E0,2.1891333E2,1.904541E0,0E0,1.0394043E1,1.8041116E2,1.9219086E2,1.6537476E-1,0E0,1.7196167E1,0E0,6.4842415E-1,2.0108398E1,1.7188045E2,6.1351334E1,0E0,0E0,1.2890869E1,8.0147705E0,0E0,0E0,0E0,0E0,0E0,0E0,0E0,0E0,0E0,0E0,0E0,0E0],"parents":[2147483647,0,0,1,1,2,2,3,3,4,4,6,6,7,7,8,8,9,9,11,11,13,13,14,14,15,15,16,16,19,19,20,20],"right_children":[2,4,6,8,10,-1,12,14,16,18,-1,20,-1,22,24,26,28,-1,-1,30,32,-1,-1,-1,-1,-1,-1,-1,-1,-1,-1,-1,-1],"split_conditions":[1.5E0,8.365E0,1.35E1,1.0985468E2,8E0,-5.877508E-2,3.5E0,2.961E2,4.38E1,2.4849998E1,-4.6564665E-2,1.1617501E2,-5.877435E-2,8.195E0,2.5099998E1,2.495E1,2.74E1,-4.8516523E-2,-3.8370695E-2,3.3190002E2,3.257E1,2.3552986E-2,1.5245493E-2,-4.445721E-2,-3.0307556E-2,-2.4698446E-2,3.0522017E-2,-7.696674E-3,-3.1099472E-2,-5.7944536E-2,-3.9087113E-2,-4.6648663E-2,-5.953024E-2],"split_indices":[5,8,0,3,0,0,5,2,1,6,0,3,0,8,6,6,6,0,0,2,9,0,0,0,0,0,0,0,0,0,0,0,0],"split_type":[0,0,0,0,0,0,0,0,0,0,0,0,0,0,0,0,0,0,0,0,0,0,0,0,0,0,0,0,0,0,0,0,0],"sum_hessian":[6.4467617E4,1.722028E4,4.724734E4,1.3143733E4,4.0765452E3,3.2826477E4,1.4420859E4,4.8250073E3,8.318726E3,8.870433E2,3.189502E3,5.4862183E3,8.934642E3,6.256092E2,4.1993984E3,3.009705E3,5.309021E3,1.2628055E2,7.607627E2,1.8772855E3,3.6089326E3,3.2671777E2,2.9889142E2,2.1738975E3,2.025501E3,7.478755E2,2.2618296E3,3.6896409E3,1.61938E3,5.594445E2,1.3178411E3,7.1051514E2,2.8984175E3],"tree_param":{"num_deleted":"0","num_feature":"14","num_nodes":"33","size_leaf_vector":"0"}},{"base_weights":[3.1097546E-1,-5.8082527E-1,4.4759098E-1,3.3408627E-1,5.600458E-1,2.5937206E-1,3.8395354E-1,6.383169E-1,4.9829134E-1,3.0654216E-1,9.355137E-2,4.815534E-1,3.3824494E-1,6.62509E-1,5.769131E-1,6.1608356E-1,4.3833745E-1,1.4464243E-1,3.3839977E-1,1.4145902E-1,-2.065708E-1,3.8346246E-1,6.0916746E-1,2.7818874E-1,3.97476E-1,6.233734E-1,6.662669E-1,2.4603704E-1,5.964212E-1,6.3657415E-1,3.7289968E-1,5.4669917E-1,3.6981487E-1],"categories":[],"categories_nodes":[],"categories_segments":[],"categories_sizes":[],"default_left":[1,0,1,1,1,1,1,1,1,1,1,1,1,1,1,1,1,0,0,0,0,0,0,0,0,0,0,0,0,0,0,0,0],"id":33,"left_children":[1,-1,3,5,7,9,11,13,15,17,19,21,23,25,27,29,31,-1,-1,-1,-1,-1,-1,-1,-1,-1,-1,-1,-1,-1,-1,-1,-1],"loss_changes":[1.1392548E4,0E0,1.0339355E3,1.4963916E2,1.9540039E2,1.2602832E2,1.0695996E2,2.5043457E1,1.5952832E2,6.4361206E1,5.1533276E1,9.526184E1,5.786853E1,1.8603516E-1,3.1883667E1,3.699536E1,1.1102661E2,0E0,0E0,0E0,0E0,0E0,0E0,0E0,0E0,0E0,0E0,0E0,0E0,0E0,0E0,0E0,0E0],"parents":[2147483647,0,0,2,2,3,3,4,4,5,5,6,6,7,7,8,8,9,9,10,10,11,11,12,12,13,13,14,14,15,15,16,16],"right_children":[2,-1,4,6,8,10,12,14,16,18,20,22,24,26,28,30,32,-1,-1,-1,-1,-1,-1,-1,-1,-1,-1,-1,-1,-1,-1,-1,-1],"split_conditions":[1.5E0,-5.808253E-2,4.5E0,2.5E0,2.6150002E1,4.573723E1,2.525E1,1.7022266E1,7.05E0,7.1949997E0,8.4444995E2,1.5845751E1,4.5302612E1,5.5E0,3.2675E1,1.3660885E1,4.545E1,1.4464243E-2,3.383998E-2,1.4145902E-2,-2.0657081E-2,3.8346246E-2,6.0916748E-2,2.7818874E-2,3.97476E-2,6.233734E-2,6.662669E-2,2.4603704E-2,5.9642117E-2,6.365742E-2,3.728997E-2,5.4669917E-2,3.698149E-2],"split_indices":[5,0,5,5,6,4,6,11,7,7,2,11,4,5,9,12,1,0,0,0,0,0,0,0,0,0,0,0,0,0,0,0,0],"split_type":[0,0,0,0,0,0,0,0,0,0,0,0,0,0,0,0,0,0,0,0,0,0,0,0,0,0,0,0,0,0,0,0,0],"sum_hessian":[9.350688E4,1.2420113E4,8.108677E4,4.0361406E4,4.0725363E4,1.6166307E4,2.4195102E4,1.7949537E4,2.2775826E4,1.2580673E4,3.5856343E3,7.70707E3,1.6488031E4,1.2857727E4,5.0918115E3,7.67355E3,1.5102275E4,2.074589E3,1.0506083E4,3.095387E3,4.9024728E2,4.364287E3,3.342783E3,8.1982E3,8.289831E3,1.1643932E3,1.1693333E4,2.8710446E2,4.804707E3,7.07194E3,6.016098E2,5.84206E3,9.260216E3],"tree_param":{"num_deleted":"0","num_feature":"14","num_nodes":"33","size_leaf_vector":"0"}},{"base_weights":[-6.527575E-3,4.5771307E-1,-1.8374854E-1,4.057606E-1,5.982927E-1,-3.8911924E-2,-3.627904E-1,4.8406112E-1,3.1382588E-1,5.6403095E-1,6.105303E-1,5.3617302E-2,-1.1035665E-1,-5.107156E-1,-2.6180047E-1,3.3293915E-1,5.613937E-1,4.5653036E-1,2.1646473E-1,-5.4663073E-2,1.4728414E-1,-2.2731338E-1,-6.092677E-2,-3.4296164E-1,-5.413603E-1,-4.6929196E-1,-1.7162739E-1,2.4337494E-1,5.016944E-1,5.061122E-1,5.892812E-1,2.6174486E-1,5.0880885E-1,9.2441306E-2,3.8829485E-1,-1.0211568E-1,1.9311683E-1,-5.652631E-2,2.5424513E-1,-9.303616E-2,-4.1448253E-1,-5.532226E-3,-1.1830129E-1,-6.30838E-2,-4.7048393E-1,-5.530058E-1,-3.2143822E-1,-5.022956E-1,-1.09981865E-1,-5.804434E-2,-3.0891863E-1],"categories":[],"categories_nodes":[],"categories_segments":[],"categories_sizes":[],"default_left":[1,1,1,1,1,1,1,1,1,0,0,1,1,1,1,1,1,1,1,1,1,1,1,1,1,1,1,0,0,0,0,0,0,0,0,0,0,0,0,0,0,0,0,0,0,0,0,0,0,0,0],"id":34,"left_children":[1,3,5,7,9,11,13,15,17,-1,-1,19,21,23,25,27,29,31,33,35,37,39,41,43,45,47,49,-1,-1,-1,-1,-1,-1,-1,-1,-1,-1,-1,-1,-1,-1,-1,-1,-1,-1,-1,-1,-1,-1,-1,-1],"loss_changes":[6.7569893E3,1.6446582E2,1.5410331E3,1.1836914E2,1.045166E0,2.1731949E2,3.9615796E2,1.0344116E2,1.0527533E2,0E0,0E0,1.4527528E2,1.0694699E2,5.4340332E1,2.9492676E2,4.4994812E1,7.7181396E0,3.0566467E1,9.630371E1,7.793919E1,1.6763475E2,1.3780542E2,4.134391E1,5.9134216E1,2.2271484E1,5.605066E1,1.714542E2,0E0,0E0,0E0,0E0,0E0,0E0,0E0,0E0,0E0,0E0,0E0,0E0,0E0,0E0,0E0,0E0,0E0,0E0,0E0,0E0,0E0,0E0,0E0,0E0],"parents":[2147483647,0,0,1,1,2,2,3,3,4,4,5,5,6,6,7,7,8,8,11,11,12,12,13,13,14,14,15,15,16,16,17,17,18,18,19,19,20,20,21,21,22,22,23,23,24,24,25,25,26,26],"right_children":[2,4,6,8,10,12,14,16,18,-1,-1,20,22,24,26,28,30,32,34,36,38,40,42,44,46,48,50,-1,-1,-1,-1,-1,-1,-1,-1,-1,-1,-1,-1,-1,-1,-1,-1,-1,-1,-1,-1,-1,-1,-1,-1],"split_conditions":[1.5E0,8.365E0,4.5E0,3.997E2,8.43E0,2.5E0,2.6150002E1,4.13E1,7.12E0,5.6403097E-2,6.1053034E-2,1.0546684E2,2.525E1,9.372197E1,7.05E0,2.675E1,7.1949997E0,3.2449997E1,4.6445E2,2.545E1,4.207E2,1.5845751E1,4.5302612E1,1.5E0,8.455E0,1.3660885E1,4.044648E0,2.4337495E-2,5.0169438E-2,5.0611224E-2,5.892812E-2,2.6174486E-2,5.0880887E-2,9.244131E-3,3.8829487E-2,-1.0211568E-2,1.9311683E-2,-5.652631E-3,2.5424514E-2,-9.303616E-3,-4.1448254E-2,-5.532226E-4,-1.1830129E-2,-6.30838E-3,-4.7048394E-2,-5.5300582E-2,-3.2143824E-2,-5.022956E-2,-1.0998187E-2,-5.804434E-3,-3.0891864E-2],"split_indices":[5,8,5,2,8,5,6,1,7,0,0,3,6,3,7,6,7,9,2,6,2,11,4,0,8,12,10,0,0,0,0,0,0,0,0,0,0,0,0,0,0,0,0,0,0,0,0,0,0,0,0],"split_type":[0,0,0,0,0,0,0,0,0,0,0,0,0,0,0,0,0,0,0,0,0,0,0,0,0,0,0,0,0,0,0,0,0,0,0,0,0,0,0,0,0,0,0,0,0,0,0,0,0,0,0],"sum_hessian":[8.2130016E4,2.2688623E4,5.944139E4,1.6574404E4,6.114219E3,3.2863297E4,2.6578094E4,8.942747E3,7.6316562E3,1.6430198E3,4.471199E3,1.4312804E4,1.8550492E4,1.0777607E4,1.5800486E4,3.0333198E3,5.9094272E3,3.0894375E3,4.542219E3,6.6337827E3,7.679021E3,5.5038726E3,1.3046619E4,1.6716348E3,9.105973E3,4.7818916E3,1.1018595E4,1.9870773E3,1.0462424E3,1.9999441E3,3.9094834E3,6.590402E2,2.4303972E3,2.6423694E3,1.8998497E3,5.571418E3,1.0623649E3,2.6399023E3,5.0391187E3,3.2087324E3,2.2951404E3,6.64727E3,6.3993496E3,5.2616895E2,1.1454658E3,8.642279E3,4.636937E2,4.376698E3,4.0519333E2,6.0347036E3,4.983891E3],"tree_param":{"num_deleted":"0","num_feature":"14","num_nodes":"51","size_leaf_vector":"0"}},{"base_weights":[-4.671388E-1,-1.8618037E-1,-5.729189E-1,-1.1488859E-1,-4.2498565E-1,-5.800106E-1,-5.5669093E-1,-2.3550549E-1,5.1228665E-3,-3.4546188E-1,-4.41761E-1,-5.1904655E-1,-5.7985514E-1,-3.0952381E-2,-3.6741066E-1,8.398438E-2,-2.828181E-1,-5.841764E-1,-4.6703798E-1,7.188291E-2,-2.779014E-1,-2.746616E-1,-4.0910035E-1,1.24885954E-1,-4.7176155E-1,-1.3275875E-1,-3.264312E-1,-3.747952E-1,-5.893449E-1],"categories":[],"categories_nodes":[],"categories_segments":[],"categories_sizes":[],"default_left":[1,1,1,1,1,0,1,1,1,0,0,1,0,1,1,1,1,0,1,0,0,0,0,0,0,0,0,0,0],"id":35,"left_children":[1,3,5,7,9,-1,11,13,15,-1,-1,17,-1,19,21,23,25,-1,27,-1,-1,-1,-1,-1,-1,-1,-1,-1,-1],"loss_changes":[1.8059121E3,2.8257324E2,3.6230469E0,1.8570619E2,4.156372E0,0E0,1.0370117E1,1.721268E2,1.4559508E2,0E0,0E0,1.6180908E1,0E0,6.3993122E1,1.4224304E1,1.14339554E2,8.513733E0,0E0,3.1384766E1,0E0,0E0,0E0,0E0,0E0,0E0,0E0,0E0,0E0,0E0],"parents":[2147483647,0,0,1,1,2,2,3,3,4,4,6,6,7,7,8,8,11,11,13,13,14,14,15,15,16,16,18,18],"right_children":[2,4,6,8,10,-1,12,14,16,-1,-1,18,-1,20,22,24,26,-1,28,-1,-1,-1,-1,-1,-1,-1,-1,-1,-1],"split_conditions":[1.5E0,8.365E0,1.35E1,3.997E2,8.375E0,-5.800106E-2,3.5E0,4.13E1,2.74E1,-3.454619E-2,-4.4176098E-2,2.64E1,-5.7985514E-2,2.675E1,7.1800003E0,2.6559793E1,6.8050003E0,-5.8417644E-2,1.25850235E2,7.1882913E-3,-2.7790142E-2,-2.7466161E-2,-4.0910035E-2,1.2488595E-2,-4.7176156E-2,-1.3275876E-2,-3.264312E-2,-3.747952E-2,-5.893449E-2],"split_indices":[5,8,0,2,8,0,5,1,6,0,0,6,0,6,7,12,7,0,3,0,0,0,0,0,0,0,0,0,0],"split_type":[0,0,0,0,0,0,0,0,0,0,0,0,0,0,0,0,0,0,0,0,0,0,0,0,0,0,0,0,0],"sum_hessian":[6.0792734E4,1.663127E4,4.4161465E4,1.2812081E4,3.8191887E3,3.066448E4,1.3496983E4,6.393598E3,6.418483E3,6.7944934E2,3.1397395E3,5.166851E3,8.330133E3,2.5100037E3,3.8835945E3,5.0418096E3,1.3766737E3,2.2809614E3,2.8858896E3,1.7697135E3,7.4029016E2,1.2141008E3,2.669494E3,4.6985796E3,3.4322958E2,3.160872E2,1.0605864E3,1.6521182E3,1.2337714E3],"tree_param":{"num_deleted":"0","num_feature":"14","num_nodes":"29","size_leaf_vector":"0"}},{"base_weights":[2.904613E-1,-5.7392347E-1,4.1832376E-1,3.0626523E-1,5.333008E-1,3.1300065E-1,-2.2607616E-1,6.16869E-1,4.692274E-1,2.494381E-1,3.5410565E-1,-2.803237E-1,-1.633521E-1,6.41419E-1,5.5512565E-1,5.9237057E-1,4.085722E-1,-1.3490055E-3,2.6978883E-1,4.190205E-1,2.8604877E-1,5.97861E-1,6.4564335E-1,2.2191314E-1,5.750409E-1,6.1410373E-1,3.3260924E-1,3.2938907E-1,5.007318E-1],"categories":[],"categories_nodes":[],"categories_segments":[],"categories_sizes":[],"default_left":[1,0,1,1,1,1,1,1,1,1,1,0,0,1,1,1,1,0,0,0,0,0,0,0,0,0,0,0,0],"id":36,"left_children":[1,-1,3,5,7,9,11,13,15,17,19,-1,-1,21,23,25,27,-1,-1,-1,-1,-1,-1,-1,-1,-1,-1,-1,-1],"loss_changes":[9.973648E3,0E0,1.0118633E3,1.4292944E2,2.0635547E2,1.02049805E2,1.1990337E0,2.3953125E1,1.6285742E2,7.915173E1,1.0462378E2,0E0,0E0,5.8203125E-1,3.0968628E1,3.973706E1,1.0648511E2,0E0,0E0,0E0,0E0,0E0,0E0,0E0,0E0,0E0,0E0,0E0,0E0],"parents":[2147483647,0,0,2,2,3,3,4,4,5,5,6,6,7,7,8,8,9,9,10,10,13,13,14,14,15,15,16,16],"right_children":[2,-1,4,6,8,10,12,14,16,18,20,-1,-1,22,24,26,28,-1,-1,-1,-1,-1,-1,-1,-1,-1,-1,-1,-1],"split_conditions":[1.5E0,-5.7392348E-2,4.5E0,9.348E2,2.6150002E1,2.5E0,7.665E0,1.7022266E1,7.05E0,7.175E0,2.575E1,-2.8032372E-2,-1.633521E-2,5.5E0,3.2675E1,1.3660885E1,4.044648E0,-1.3490055E-4,2.6978884E-2,4.190205E-2,2.8604878E-2,5.97861E-2,6.456434E-2,2.2191314E-2,5.7504088E-2,6.1410375E-2,3.3260923E-2,3.293891E-2,5.0073184E-2],"split_indices":[5,0,5,2,6,5,7,11,7,7,6,0,0,5,9,12,10,0,0,0,0,0,0,0,0,0,0,0,0],"split_type":[0,0,0,0,0,0,0,0,0,0,0,0,0,0,0,0,0,0,0,0,0,0,0,0,0,0,0,0,0],"sum_hessian":[9.0239234E4,1.1626905E4,7.861233E4,3.9817703E4,3.8794625E4,3.932247E4,4.952348E2,1.6825559E4,2.1969066E4,1.545504E4,2.386743E4,2.5515195E2,2.4008286E2,1.2020468E4,4.805091E3,7.2416655E3,1.4727401E4,1.1563876E3,1.4298652E4,1.220554E4,1.1661889E4,1.0962399E3,1.0924229E4,2.745075E2,4.5305835E3,6.677752E3,5.6391345E2,7.9296807E3,6.7977207E3],"tree_param":{"num_deleted":"0","num_feature":"14","num_nodes":"29","size_leaf_vector":"0"}},{"base_weights":[-3.457079E-3,4.3038562E-1,-1.6868354E-1,3.8013804E-1,5.712117E-1,-3.0289296E-2,-3.4781405E-1,4.6247083E-1,2.8549477E-1,5.2307516E-1,5.83877E-1,5.5478107E-2,-9.7305834E-2,-5.0115013E-1,-2.463562E-1,3.3936292E-1,5.489209E-1,2.1534608E-1,4.8749664E-1,-4.5268916E-2,1.4269166E-1,-2.0604365E-1,-5.2382372E-2,-3.383012E-1,-5.313812E-1,-4.5703414E-1,-1.5918915E-1,2.0150365E-1,4.2431146E-1,5.7465976E-1,5.081706E-1,1.3877124E-1,4.2309654E-1,5.270504E-1,4.018034E-1,-9.484656E-2,2.091788E-1,6.9779795E-1,1.0419804E-1,-4.2295927E-1,-8.6319186E-2,-1.9016801E-3,-1.0439806E-1,-5.6990755E-1,-2.0097205E-1,-5.438651E-1,-3.059124E-1,-4.9362874E-1,-8.9600995E-2,-5.3735748E-2,-2.90463E-1],"categories":[],"categories_nodes":[],"categories_segments":[],"categories_sizes":[],"default_left":[1,1,1,1,1,1,1,1,1,0,0,1,1,1,1,1,1,1,1,1,1,1,1,1,1,1,1,0,0,0,0,0,0,0,0,0,0,0,0,0,0,0,0,0,0,0,0,0,0,0,0],"id":37,"left_children":[1,3,5,7,9,11,13,15,17,-1,-1,19,21,23,25,27,29,31,33,35,37,39,41,43,45,47,49,-1,-1,-1,-1,-1,-1,-1,-1,-1,-1,-1,-1,-1,-1,-1,-1,-1,-1,-1,-1,-1,-1,-1,-1],"loss_changes":[5.7154243E3,1.5443701E2,1.431179E3,1.2547461E2,2.1087646E0,1.8732103E2,3.9063525E2,9.113818E1,1.06205444E2,0E0,0E0,1.25624084E2,8.910968E1,4.826001E1,2.7754126E2,4.123468E1,3.9572754E0,8.8640076E1,5.442108E0,8.3465866E1,1.6286093E2,1.3819604E2,3.39124E1,4.924643E1,2.2742432E1,5.8940063E1,1.4806238E2,0E0,0E0,0E0,0E0,0E0,0E0,0E0,0E0,0E0,0E0,0E0,0E0,0E0,0E0,0E0,0E0,0E0,0E0,0E0,0E0,0E0,0E0,0E0,0E0],"parents":[2147483647,0,0,1,1,2,2,3,3,4,4,5,5,6,6,7,7,8,8,11,11,12,12,13,13,14,14,15,15,16,16,17,17,18,18,19,19,20,20,21,21,22,22,23,23,24,24,25,25,26,26],"right_children":[2,4,6,8,10,12,14,16,18,-1,-1,20,22,24,26,28,30,32,34,36,38,40,42,44,46,48,50,-1,-1,-1,-1,-1,-1,-1,-1,-1,-1,-1,-1,-1,-1,-1,-1,-1,-1,-1,-1,-1,-1,-1,-1],"split_conditions":[1.5E0,8.365E0,4.5E0,3.997E2,8E0,2.5E0,2.6150002E1,3.9710533E1,2.74E1,5.2307516E-2,5.8387704E-2,1.0546684E2,2.525E1,9.372197E1,7.05E0,8.195E0,1.08757385E2,8.299999E0,1.05E1,2.545E1,2.5E0,1.09902084E2,4.5302612E1,3.3305E1,8.455E0,1.3660885E1,4.044648E0,2.0150365E-2,4.2431146E-2,5.7465978E-2,5.081706E-2,1.3877124E-2,4.2309653E-2,5.270504E-2,4.018034E-2,-9.484656E-3,2.0917881E-2,6.97798E-2,1.0419804E-2,-4.229593E-2,-8.631919E-3,-1.9016802E-4,-1.0439806E-2,-5.6990754E-2,-2.0097205E-2,-5.4386508E-2,-3.059124E-2,-4.9362876E-2,-8.9601E-3,-5.373575E-3,-2.90463E-2],"split_indices":[5,8,5,2,0,5,6,4,6,0,0,3,6,3,7,8,3,8,0,6,0,3,4,9,8,12,10,0,0,0,0,0,0,0,0,0,0,0,0,0,0,0,0,0,0,0,0,0,0,0,0],"split_type":[0,0,0,0,0,0,0,0,0,0,0,0,0,0,0,0,0,0,0,0,0,0,0,0,0,0,0,0,0,0,0,0,0,0,0,0,0,0,0,0,0,0,0,0,0,0,0,0,0,0,0],"sum_hessian":[7.973436E4,2.198905E4,5.774531E4,1.6214442E4,5.7746074E3,3.2580627E4,2.5164684E4,8.663433E3,7.5510093E3,1.2281398E3,4.546468E3,1.4284566E4,1.829606E4,1.0014974E4,1.514971E4,3.5807766E3,5.0826562E3,5.6098926E3,1.9411167E3,6.62293E3,7.661636E3,5.3413677E3,1.2954692E4,1.57516E3,8.439813E3,4.4291016E3,1.0720608E4,1.3709941E3,2.2097825E3,3.092023E3,1.9906334E3,4.103765E3,1.5061276E3,1.3165924E3,6.2452435E2,5.5467383E3,1.0761921E3,4.9404456E2,7.167592E3,1.8957607E3,3.4456067E3,6.584634E3,6.3700586E3,5.8244006E2,9.927199E2,7.9914897E3,4.4832413E2,4.0251504E3,4.0395093E2,5.9499717E3,4.7706367E3],"tree_param":{"num_deleted":"0","num_feature":"14","num_nodes":"51","size_leaf_vector":"0"}},{"base_weights":[-4.5497578E-1,-1.7158498E-1,-5.653565E-1,-1.00732155E-1,-4.1673586E-1,-5.7306826E-1,-5.479037E-1,-3.0181465E-1,-3.2745004E-2,-3.426474E-1,-4.3280193E-1,-5.081553E-1,-5.7289904E-1,-4.022645E-1,-1.3532141E-1,-1.3603303E-1,2.7002266E-1,-5.7714343E-1,-4.535381E-1,-4.1145122E-1,-3.445857E-1,-4.5708472E-1,-8.363064E-3,4.7815587E-2,-2.2209948E-1,3.0079207E-1,-4.0695056E-1,-3.577903E-1,-5.820921E-1],"categories":[],"categories_nodes":[],"categories_segments":[],"categories_sizes":[],"default_left":[1,1,1,1,1,0,1,1,1,0,0,1,0,1,1,1,1,0,1,0,0,0,0,0,0,0,0,0,0],"id":38,"left_children":[1,3,5,7,9,-1,11,13,15,-1,-1,17,-1,19,21,23,25,-1,27,-1,-1,-1,-1,-1,-1,-1,-1,-1,-1],"loss_changes":[1.7947695E3,2.790022E2,4.1240234E0,1.7041525E2,3.3675537E0,0E0,1.126709E1,5.2126587E1,2.919669E2,0E0,0E0,1.730481E1,0E0,1.416626E-1,4.8201176E1,1.1042308E2,4.9456955E1,0E0,3.2916565E1,0E0,0E0,0E0,0E0,0E0,0E0,0E0,0E0,0E0,0E0],"parents":[2147483647,0,0,1,1,2,2,3,3,4,4,6,6,7,7,8,8,11,11,13,13,14,14,15,15,16,16,18,18],"right_children":[2,4,6,8,10,-1,12,14,16,-1,-1,18,-1,20,22,24,26,-1,28,-1,-1,-1,-1,-1,-1,-1,-1,-1,-1],"split_conditions":[1.5E0,8.365E0,1.35E1,2.5E1,8.375E0,-5.7306826E-2,3.5E0,3.946E2,7.3450003E0,-3.426474E-2,-4.3280195E-2,2.64E1,-5.7289906E-2,7.8050003E0,4.28E1,7.6899996E0,1.35E1,-5.7714343E-2,1.25850235E2,-4.1145124E-2,-3.445857E-2,-4.5708474E-2,-8.363064E-4,4.7815586E-3,-2.2209948E-2,3.0079206E-2,-4.0695056E-2,-3.577903E-2,-5.820921E-2],"split_indices":[5,8,0,6,8,0,5,2,7,0,0,6,0,8,1,8,0,0,3,0,0,0,0,0,0,0,0,0,0],"split_type":[0,0,0,0,0,0,0,0,0,0,0,0,0,0,0,0,0,0,0,0,0,0,0,0,0,0,0,0,0],"sum_hessian":[5.7401504E4,1.6093854E4,4.130765E4,1.2489626E4,3.604227E3,2.8587025E4,1.2720624E4,3.1512297E3,9.338396E3,6.5736615E2,2.946861E3,4.934676E3,7.7859487E3,1.9608025E3,1.1904272E3,6.96587E3,2.3725264E3,2.1681567E3,2.766519E3,1.6711603E3,2.8964227E2,3.3384738E2,8.565799E2,2.2176086E3,4.748261E3,2.2713242E3,1.0120208E2,1.5922004E3,1.1743186E3],"tree_param":{"num_deleted":"0","num_feature":"14","num_nodes":"29","size_leaf_vector":"0"}},{"base_weights":[2.7424482E-1,-5.6769377E-1,3.94154E-1,2.862118E-1,5.0819856E-1,2.922891E-1,-2.0084941E-1,5.943785E-1,4.4364348E-1,2.3533066E-1,3.3007172E-1,-2.3561808E-1,-1.0042207E-1,4.8499426E-1,6.1292356E-1,5.448233E-1,3.6689124E-1,3.0694547E-1,1.717229E-1,3.7876824E-1,2.4787113E-1,2.7640867E-1,5.674765E-1,6.203818E-1,4.6287584E-1,4.0845004E-1,5.7394946E-1,4.5937923E-1,2.4135795E-1],"categories":[],"categories_nodes":[],"categories_segments":[],"categories_sizes":[],"default_left":[1,0,1,1,1,1,1,1,1,1,1,0,0,1,1,1,1,0,0,0,0,0,0,0,0,0,0,0,0],"id":39,"left_children":[1,-1,3,5,7,9,11,13,15,17,19,-1,-1,21,23,25,27,-1,-1,-1,-1,-1,-1,-1,-1,-1,-1,-1,-1],"loss_changes":[8.815318E3,0E0,9.3997656E2,1.1640283E2,2.0543555E2,8.2840576E1,1.3253021E0,3.0868652E1,1.6396143E2,7.000464E1,9.2583496E1,0E0,0E0,3.8884216E1,1.3835449E1,3.517285E1,1.3962708E2,0E0,0E0,0E0,0E0,0E0,0E0,0E0,0E0,0E0,0E0,0E0,0E0],"parents":[2147483647,0,0,2,2,3,3,4,4,5,5,6,6,7,7,8,8,9,9,10,10,13,13,14,14,15,15,16,16],"right_children":[2,-1,4,6,8,10,12,14,16,18,20,-1,-1,22,24,26,28,-1,-1,-1,-1,-1,-1,-1,-1,-1,-1,-1,-1],"split_conditions":[1.5E0,-5.676938E-2,4.5E0,9.348E2,2.6150002E1,2.5E0,7.6800003E0,9.372197E1,7.175E0,4.037E2,2.645E1,-2.356181E-2,-1.0042207E-2,1.5E0,8.455E0,3.2394997E1,1.0028325E1,3.0694548E-2,1.717229E-2,3.7876826E-2,2.4787113E-2,2.7640868E-2,5.6747653E-2,6.203818E-2,4.6287585E-2,4.0845003E-2,5.7394948E-2,4.593792E-2,2.4135796E-2],"split_indices":[5,0,5,2,6,5,7,3,7,2,6,0,0,0,8,9,11,0,0,0,0,0,0,0,0,0,0,0,0],"split_type":[0,0,0,0,0,0,0,0,0,0,0,0,0,0,0,0,0,0,0,0,0,0,0,0,0,0,0,0,0],"sum_hessian":[8.731676E4,1.0883879E4,7.6432875E4,3.92733E4,3.715958E4,3.879173E4,4.8157022E2,1.5904133E4,2.1255445E4,1.5483528E4,2.3308201E4,3.4932706E2,1.3224315E2,2.317269E3,1.3586864E4,9.160433E3,1.2095012E4,7.274149E3,8.209379E3,1.4627144E4,8.681058E3,6.61332E2,1.6559371E3,1.2934165E4,6.526995E2,1.6208274E3,7.5396055E3,6.958003E3,5.1370083E3],"tree_param":{"num_deleted":"0","num_feature":"14","num_nodes":"29","size_leaf_vector":"0"}},{"base_weights":[-9.6645736E-4,4.027354E-1,-1.545479E-1,3.517679E-1,5.487611E-1,-2.607778E-2,-3.2703087E-1,4.3222806E-1,2.6117057E-1,5.047635E-1,5.6025076E-1,5.1508073E-2,-8.7154366E-2,-4.8382068E-1,-2.2686712E-1,2.856556E-1,5.120223E-1,3.9771038E-1,1.7249721E-1,-4.7184803E-2,1.2721573E-1,-1.6796386E-1,-2.364502E-2,-5.472505E-1,-3.7914082E-1,-4.3633646E-1,-1.4317712E-1,2.0934373E-1,4.4011378E-1,4.5445547E-1,5.415896E-1,2.083852E-1,4.522021E-1,1.2637544E-1,6.014748E-1,2.2477202E-2,-2.3536906E-1,4.5259377E-1,6.610718E-2,-2.2715117E-1,